nep4 2 Ru Si 
cutoff 6 6 210 210
n_max 8 8
basis_size 8 8
l_max 4 2 0
ANN 80 0
 -8.1394178e-01
 -4.9209628e-02
 -1.0974196e-01
  2.0250344e-01
  1.7976475e+00
  9.3472409e-01
  2.5362771e-02
  2.1229151e-01
 -2.8372398e-01
  1.7589159e+00
 -3.8692135e-01
  1.0456158e+00
 -1.0283382e+00
  2.0636189e+00
  5.5870488e-02
 -6.4595360e-01
  2.8592572e-01
 -4.0155862e-02
  1.5906410e-02
  4.1031292e-01
 -1.4192064e-02
  1.3987786e-01
  1.4052431e-01
 -5.4368049e-01
 -1.2733133e-01
  3.8760152e-02
 -1.7805508e-01
 -4.2036664e-01
  1.0907128e+00
 -2.2346586e-01
 -2.0538983e-01
 -1.5897626e-02
  5.4279227e-02
  3.3024687e-01
  6.3223642e-01
 -1.7030032e+00
 -2.9238176e+00
 -9.7981679e-01
  4.9748573e-02
 -2.2809900e-01
  9.6425503e-01
  1.1966955e-01
 -2.2763810e+00
  5.4438356e-03
 -2.4998815e-01
 -8.9605495e-02
  8.4446239e-01
 -8.8530093e-02
  2.3889445e-01
  4.0442753e-03
  2.2915021e-01
  1.3278035e-02
  3.6094118e-02
  4.3101296e-02
 -8.3421292e-03
  1.3558693e-02
 -2.9948261e-01
 -8.1063010e-02
 -3.4337439e-02
 -1.2175540e-02
 -3.2797869e-02
  6.7474306e-02
 -2.3614553e-01
  4.5585722e-02
 -1.5017428e-02
  4.0217347e-02
  4.4930398e-02
  6.1666988e-02
 -5.1471047e-02
  1.6517872e-01
  2.9955009e-02
 -1.1445754e-01
  4.4821934e-03
  9.7153261e-03
 -4.4817224e-02
 -4.9223300e-02
 -3.6848735e-02
 -4.4654071e-02
 -5.7740927e-02
 -6.0694022e-03
  1.8608123e-02
  3.5966042e-01
 -5.8778055e-02
  2.5910906e-02
  1.0714517e-01
  6.7706659e-02
  1.3608168e-02
 -2.9702874e-02
  3.2495692e-02
 -9.5861368e-03
  5.3955853e-02
 -2.1590046e-03
  4.8159827e-02
 -2.3886178e-01
  9.3124399e-05
  4.3148063e-02
 -5.9359460e-03
 -1.8642280e-02
  3.2614674e-02
 -4.8973471e-02
 -9.5225880e-03
 -9.4137173e-03
  8.5277396e-01
  3.3764217e-02
  4.4923518e-03
  1.0856321e-01
  1.5956557e-01
 -5.7093561e-02
  3.2813572e-03
  1.5113746e-01
 -1.9818106e-01
 -2.1435752e+00
 -1.7111834e+00
 -4.3131953e-01
 -1.2604947e-01
 -2.9259408e-01
 -5.9621915e-02
  1.1739728e-01
 -9.0564713e-02
 -5.4592777e-02
  7.6410644e-02
 -1.6546856e-03
  1.3199627e-03
 -1.0966580e-01
 -6.5498389e-03
 -7.3271498e-02
 -4.8059043e-01
 -6.3519835e-02
  2.6431482e-02
  4.0675882e-02
 -7.0424040e-04
  3.3013043e-01
  6.0495064e-03
 -5.9414290e-02
  1.2125276e-01
 -2.7230793e-01
  1.1021899e-01
 -7.3918551e-02
 -9.6914992e-03
 -4.2300016e-02
 -8.4417619e-02
 -1.4791857e-01
 -1.4246863e-01
  3.3598703e-01
  7.0993024e-01
  4.6912141e-02
 -3.2529062e-01
 -1.5301138e-01
  1.9460900e-01
 -2.4297959e-03
  6.1942260e-03
 -3.5697125e-02
 -4.0104845e-01
 -1.2438838e-02
 -3.6030628e-02
  2.0707038e-01
 -4.0032919e-03
  1.2641640e-02
  8.5028373e-03
  2.2744377e-01
 -8.4265575e-02
  1.1044779e-01
 -4.4379760e-02
 -4.6398625e-02
 -5.7097864e-01
  1.5754921e+00
 -1.9933505e-01
  6.3066939e-03
 -4.6898634e-03
 -7.9949790e-01
 -4.6972424e-01
 -7.5612083e-02
 -1.7719276e-02
  3.0634051e-02
 -5.3913001e-02
  4.3112161e-03
  9.6350960e-02
 -5.9706356e-02
 -5.4972759e-03
 -3.8347301e+00
  8.7436093e-03
  7.0550791e-03
 -1.2088169e-02
  7.7295616e-02
 -1.6092191e-02
 -2.6281819e-02
  8.1370339e-02
 -2.7350867e-01
 -4.8692115e-03
 -3.4546886e-02
 -1.2203151e-01
 -2.6160326e-02
 -8.7740190e-02
  1.4038171e-01
 -2.0512970e-02
  1.9994953e-01
 -3.8322967e-02
  6.3896343e-02
 -8.2957735e-03
 -7.8541882e-02
  1.2330232e-02
  8.3476685e-02
 -5.6675728e-02
  5.7244647e-02
  6.1769709e-03
  2.2234490e-02
 -4.4949213e-03
 -5.9089601e-02
 -1.7234775e-01
 -6.8745382e-02
  4.1948445e-02
  5.6263756e-02
 -5.5328891e-02
  1.9508883e-02
  6.2798182e-03
  1.6035631e-03
 -6.4652301e-02
 -1.3031505e-01
  9.1904566e-02
 -1.8098054e-02
  8.4969476e-02
 -3.2872587e-02
 -4.0717851e-02
 -7.5080946e-02
  1.3469763e-01
 -2.6651699e-02
 -6.3091636e-02
 -3.6240064e-02
 -7.8965098e-02
  6.0561854e-02
  1.4761616e-02
 -7.0214935e-02
 -9.1100857e-02
 -5.9969671e-04
  1.2635564e-02
  6.0237683e-02
 -1.2913166e-01
  1.1030572e-02
 -1.6145784e-01
  3.2660730e-02
  3.2420404e-02
  5.8571421e-02
 -6.0805758e-03
  1.0911729e-01
  9.3366522e-03
 -2.6030919e-02
 -5.3892273e-02
 -2.4986437e-01
  7.3064916e-02
  2.1472649e-01
  3.4601563e-03
  1.1850692e-02
  5.7412580e-02
  3.2438345e-02
 -5.8884616e-03
  1.0293864e-01
  7.4985109e-02
 -1.2204214e-01
 -8.9758568e-02
 -2.1044075e-01
 -1.8265547e-01
  4.0281530e-02
 -8.9575768e-02
  1.6386352e-02
  1.3021871e-01
 -7.6650918e-02
  1.0861038e-01
 -5.5957727e-02
 -6.7283530e-03
 -3.5673335e-01
 -6.1453134e-03
  3.3688939e+00
  8.4723132e-03
 -6.1169028e-01
 -2.4754378e-01
  7.4619040e+00
  7.4067771e-01
 -3.6835650e-01
 -4.5460647e-01
  9.7927347e-02
 -7.9368493e-03
 -3.9538886e-02
  3.5752513e+00
  5.5429969e-02
 -2.9142771e+00
  1.2548900e-02
 -1.6416295e-01
  3.3455059e-02
  2.5500605e-02
 -4.6592769e-01
  1.2940383e-02
 -8.7439284e-02
  1.0026673e-01
  7.1912877e-02
  4.9659348e-01
  6.5347329e-02
  7.8691859e-03
 -9.2330045e-01
  1.2402576e-01
  1.8883455e+00
  7.3203109e-02
  1.7614545e-01
 -7.6109171e-01
  3.0724105e-01
 -1.3778895e-01
  2.9950821e-01
  3.4575561e-01
 -1.7444253e-02
  8.1068330e-02
 -4.4269335e-01
  5.9453249e-01
 -9.9163425e-01
  6.4431213e-02
 -1.2497914e+00
 -1.9309355e-01
 -1.6258521e-02
  2.0019772e-02
 -9.5201239e-02
 -9.3172811e-02
 -1.3352246e-02
 -1.1542565e-01
 -1.8715490e-01
  1.8596031e-01
 -7.2496548e-02
 -2.6205642e-04
  6.1396929e-03
  1.9863741e-02
  1.3694373e-01
 -7.0663288e-02
  1.1679916e-02
 -5.9265517e-02
 -1.1005122e-01
  1.6875772e-02
 -4.5189966e-02
  6.5106168e-02
 -1.5871753e-01
  4.9398374e-02
 -1.4122267e-01
 -7.9941247e-03
  6.5680742e-02
 -4.8818279e-02
  7.1238853e-02
  6.4116947e-02
  4.4625293e-02
  4.8470500e-01
  2.1977900e-02
 -2.4107642e-01
  9.8361917e-02
 -3.8651779e-02
  2.2215813e-01
  1.2540215e-01
 -2.4024058e-02
  9.3094267e-02
 -3.1294653e-01
  8.9382511e-03
  1.8758904e+00
 -1.9105369e-03
 -4.4477027e-02
 -2.3220716e-02
  1.8788991e-02
  1.3777417e-01
  6.1663739e-02
  1.7249312e-02
 -7.7105463e-02
 -8.3149821e-03
  1.8954210e-01
  1.7519502e-01
  3.2504447e-02
 -1.8258244e-02
 -1.0414928e-02
  1.4626545e-01
  8.0747865e-02
  5.5144340e-02
  1.1168189e-01
  1.5125621e-02
 -1.0755898e-01
 -7.1347528e-03
  1.3253149e-01
 -7.5136451e-03
 -1.2209607e-01
  6.4440474e-02
 -8.2701735e-02
 -1.0633785e+00
  3.1132309e-02
 -1.2947954e-01
 -7.3210120e-01
 -1.2625998e-01
  5.5140819e-02
 -2.1283996e-01
 -3.7326461e-03
 -6.4258347e-03
  1.4774169e-01
 -1.5813060e-02
 -1.0580474e-02
 -1.5909115e-02
 -2.3044119e-02
  2.4977880e-02
 -2.3659065e-02
  2.4982572e-02
  2.1994027e-01
 -3.6622003e-02
  6.3273191e-02
  5.6134159e-04
  1.7171372e-02
  6.1883625e-02
 -1.2861045e-01
 -3.2195605e-02
 -5.0006442e-02
  6.6285483e-03
 -3.3237223e-02
  1.8507957e-02
  1.3421786e-02
  2.6656952e-02
 -1.2581433e-01
 -6.8315156e-02
 -5.6858610e-02
  4.5079559e-02
  1.7457247e-01
 -1.8230185e-02
  4.3591674e-02
  4.5153514e-02
 -1.1879443e-01
  1.0136088e-03
  1.2603652e-01
 -2.4401873e-01
  4.0845543e-02
  6.6108219e-02
  2.8779120e+00
  1.5631297e-01
  1.8479942e-03
 -4.0871415e-02
 -1.0989484e-01
  9.4713479e-02
 -1.7433088e-01
 -1.9528871e+00
  7.0067006e-01
 -4.2511373e+00
 -1.2958374e+00
 -1.1870303e-01
 -6.4020044e-01
 -4.0241939e-01
 -2.2127591e-01
  1.8383564e-02
  5.2968588e-02
 -6.3147759e-01
 -2.4076763e-01
 -6.3410389e-01
  5.0421304e-01
  1.4894934e-01
 -1.6312864e-01
  1.4354236e-01
  2.5673073e-02
  6.1462812e-02
  1.1569818e-01
 -2.0627910e-01
 -5.0080448e-01
  6.7712842e-03
  1.7044106e-01
  2.0987661e-01
 -2.3436281e-01
 -2.4158573e-02
 -1.2846039e-01
  1.5146397e-01
 -4.1265365e-01
  1.7548765e-01
 -1.2156564e-01
  2.5184920e-01
 -2.1612803e-02
 -6.2307662e-01
 -3.5701737e-01
 -3.8128540e-01
  6.8262881e-01
  6.0869181e-01
  6.8171948e-01
 -8.5248089e-01
  1.3567334e+00
 -8.7241739e-02
  4.2858116e-02
  3.3865310e-02
 -2.5726890e-02
  1.0305638e-01
  8.3916765e-01
 -2.2592697e-02
  3.4168959e-02
  4.2040665e-02
  2.3017218e-02
 -1.0605187e-01
  2.3809877e-01
  1.9198254e-02
 -3.9816492e+00
  7.4606515e-02
 -2.3385718e-01
 -1.3767196e-01
  1.6007191e-01
  8.4382243e-02
  8.8090580e-03
  1.2132891e-02
  8.8932000e-02
 -3.4801215e-01
 -4.5713913e-02
 -1.3476773e-02
 -8.8194147e-02
  6.4112462e-02
 -2.6347343e-02
  8.9678727e-02
  2.3969753e-02
  2.6796810e-02
 -2.9347729e-02
  6.6766827e-03
  6.9081642e-02
  2.1513253e-01
  1.0654820e-01
 -2.8315993e-02
  6.2353291e-02
 -1.4645113e-01
 -1.3730817e-02
 -2.8117755e-02
  4.5938849e-02
 -2.8947506e-02
  5.6397907e-02
  3.5667475e-02
  1.8412156e-02
 -1.0751028e-01
  1.6946417e-03
  1.0679332e+00
  7.1339048e-02
  9.5053576e-02
 -4.4801679e-02
 -5.4390270e-02
 -1.1993671e-02
  2.7760030e-03
  3.8437940e-02
 -2.0513695e-03
 -1.6196093e-02
 -3.7918687e-02
  1.8326811e-02
 -3.2822296e-02
 -7.2544366e-02
  1.7962752e-01
 -6.0689278e-02
  7.9106636e-02
  1.3288298e-02
  1.6657334e-02
 -7.2558053e-02
  2.7588204e-01
  8.3493954e-01
 -9.8474905e-02
 -1.9039869e-02
  4.0834334e-02
 -1.6008480e-02
 -1.0887095e-02
 -1.5765911e-01
 -1.3673510e-01
  2.1977734e-03
  5.1139936e-02
  3.6057554e-02
 -1.7572906e-02
  8.5169021e-03
  4.9757354e-02
 -1.0625552e-01
  6.2141851e-02
  1.3562916e-01
  1.2524655e-01
 -3.3020381e-02
  3.8538884e-02
  1.2158833e-01
  4.7474294e-03
  1.1079413e-01
  5.9273161e-02
  1.5153881e-04
  3.2771938e-02
  9.5314160e-02
 -2.3918003e-02
 -8.9198109e-03
  3.2513022e-02
  2.0000394e-03
  1.0190804e-03
 -8.1248589e-02
 -1.0133161e-01
  6.5177724e-02
 -2.9798219e-02
 -8.2855858e-02
  2.0125015e-02
  2.5289053e-02
  4.5298256e-02
  4.0425997e-02
  7.0115358e-02
  1.1510694e-02
  2.1617347e-02
  7.6806933e-02
  4.2460486e-02
  4.5714080e-02
 -1.0484758e-01
  6.2502384e-02
 -3.8528088e-01
 -3.2161158e-01
 -2.3274081e+00
 -3.7666249e+00
  1.3036203e+00
  1.9531237e-01
 -4.9037393e-02
 -1.3434796e+00
  7.8866363e+00
 -2.2825210e-01
 -1.8764822e-02
  1.1477300e-01
 -2.0926340e-01
 -1.0854370e-01
 -2.9204372e-01
 -6.2913537e-02
  2.3408690e-02
  9.1695249e-02
 -8.0320708e-02
 -6.1091792e-02
 -1.2608876e-02
 -2.4404917e+00
 -2.2130488e-01
 -1.3656155e-02
  4.5145959e-02
  4.0363207e-02
  2.4643341e-02
  6.9446377e-02
 -1.3708189e-01
 -1.1410932e-01
 -5.3559806e-02
  1.9088106e+00
 -7.5176537e-01
 -2.3523690e-01
 -1.0948558e-01
 -6.6494785e-02
  3.3816412e-01
  1.7407824e-01
 -4.2420421e-02
  2.5242914e-02
  1.7729388e-03
 -4.1106168e-02
 -8.4202178e-02
  4.3281999e-01
 -3.3387733e-01
  1.3364079e+00
 -1.8027259e-02
 -7.0964850e-02
  6.3845128e-02
 -5.8552507e-02
 -1.5191028e-02
 -7.4766167e-02
 -5.2922506e-02
 -4.6069387e-02
 -1.8381249e-02
  6.4753368e-02
 -1.2228536e-01
  2.2379321e-01
 -2.2903702e-01
 -1.4406111e-04
 -2.9378604e-02
 -2.5203362e-02
 -4.5249779e-02
 -1.3606660e-02
  9.3335629e-02
  4.9037971e-02
  2.4586255e-02
  1.1348953e-02
  3.7053097e-02
  8.1340037e-02
 -8.5301094e-02
  3.3067308e-02
  1.9042189e-01
  5.0620724e-02
  5.3562690e-02
  1.7834814e-02
  2.6261706e-02
  7.6231085e-02
  7.6342218e-02
  3.8140737e-03
 -1.2458257e-01
  7.0471957e-02
 -4.8192423e-02
 -8.4043093e-02
  4.8559185e-02
  6.9158494e-02
 -3.8748344e-03
  2.6895523e-02
 -1.2907963e-01
 -9.5889851e-02
 -7.3339224e-02
  2.2196522e-02
  1.3040563e-01
 -5.8009546e-02
 -4.0364760e-01
  1.6160864e-01
  1.5430752e-03
 -3.8698333e-04
 -5.7816435e-02
  5.0955109e-02
 -2.0905219e-03
  4.1281462e-02
 -8.8920407e-02
 -1.1062859e-01
  5.3824417e-02
 -5.8807150e-02
 -3.3861186e-02
 -1.5068983e-01
  3.8825591e+00
 -2.3933108e+00
 -1.6773635e+00
 -9.4926888e-01
 -2.1318059e+00
 -3.4020263e-01
 -5.6744203e-02
 -7.1059048e-01
  1.8065597e+00
 -7.1728790e-01
 -1.3024120e-02
  2.0656607e+00
  1.6706461e-01
 -7.0587581e-01
 -1.5154840e+00
  9.1328633e-01
  3.4788678e+00
  2.8587207e-01
 -1.1660235e+00
 -5.5572506e-02
  1.8516535e+00
  4.7457710e-01
  5.3316660e-02
 -5.0179005e-01
  5.4226410e-01
  1.8830508e+00
  2.8059945e-01
 -9.1966873e-01
  2.0616768e-01
  1.2676389e+00
  2.6196277e-01
  4.8977214e-01
  6.4941831e-02
  1.8279980e+00
  1.1871719e+00
 -1.1730770e+00
 -6.0778577e-02
  3.9127201e-01
 -2.1195076e-01
  6.1464220e-02
 -1.1800037e-01
  2.4123017e-03
  1.0856152e+00
  1.4331783e+00
 -1.1238683e+00
 -4.2429533e-02
  1.9294384e-01
  5.3899735e-02
  7.5388132e-03
  8.8313270e-01
  2.0079090e-01
  4.5249167e-01
 -2.7885273e-02
  6.6082709e-02
  3.9600782e+00
  7.8720313e-01
  8.2052100e-01
 -2.8302786e+00
 -3.8994189e-02
 -2.5325584e+00
 -3.5736486e-01
  7.4115026e-01
  1.7052174e+00
  2.2437888e-01
 -5.8502197e-02
 -9.1450888e-01
 -4.3488270e-01
 -1.9532731e+00
 -2.8699076e+00
  1.5736635e+00
 -3.8401133e-01
 -9.1239050e-02
 -5.5117846e-01
  2.3881178e+00
  1.5374949e+00
 -4.2489335e-02
  6.8954182e-01
  1.9162236e-01
 -1.2790380e+00
  6.2665576e-01
  4.3785587e-02
 -1.1827047e+00
  9.7931939e-01
  6.2196153e-01
  5.9823330e-02
  1.1359805e+00
 -9.6334994e-01
 -4.4364966e-02
 -7.2496825e-01
  1.7891584e-01
  4.1411266e-01
 -1.1803793e+00
  1.5663895e-01
 -5.0132122e-02
  3.4355881e+00
  3.5421159e+00
  1.0370316e-02
 -9.3237239e-01
  1.0326265e-01
 -1.1662036e-02
 -1.2632637e-01
 -8.9795604e-02
 -2.7345681e-01
 -9.1214544e-01
 -1.4040001e-01
 -2.5399184e-01
  2.1138851e-02
  5.7188071e-02
  3.1765662e-02
 -1.0343052e-01
 -1.8520402e-02
 -1.7936138e+00
 -1.2080702e+00
  6.5860339e-02
  5.0652388e-02
 -1.6411981e-01
  9.4387494e-03
  3.0915305e-02
 -1.0429262e-01
  5.2878849e-02
  5.6955937e-02
 -2.1727888e-02
 -4.8921555e-02
 -2.2168516e-03
  4.1694446e-03
  6.5089334e-03
  1.9849500e-01
  4.8348833e-02
  1.9986700e-02
 -2.4400257e-02
  2.0853581e-01
  1.5107223e-01
  5.9355716e-03
  2.1520166e-02
  8.2630090e-02
 -6.5517507e-02
  1.6467538e-01
 -7.4374340e-02
 -2.1031289e-01
  1.1225118e-01
  9.8572136e-04
  1.3235573e-01
 -3.9619815e-02
  2.2572316e-02
 -1.6657726e-01
  8.0616493e-03
 -4.4692516e-02
  7.6383241e-02
  1.6145641e-02
 -8.2202079e-03
  8.9734793e-02
  2.4842261e-03
 -4.2442888e-02
  1.6251408e-01
  8.2320988e-02
 -1.3555292e-02
  2.8472331e-01
 -1.0317859e-02
  5.3135969e-02
 -1.5495770e-03
 -5.3780291e-02
  7.9265408e-02
 -3.9740898e-02
  1.7538711e-01
 -1.2943333e-03
  3.3823910e-01
 -1.1390509e-01
  1.1863657e-01
  4.9208790e-02
 -1.0771971e+00
 -1.3628031e-01
 -5.7450049e-03
 -4.6092562e-02
 -2.4563389e-02
  3.3900741e-02
 -1.5487345e-01
  2.3798537e-02
 -1.0574431e-02
 -6.4041149e-03
  4.1142884e-03
  2.5894500e-02
  1.7863555e-02
  1.3358259e-01
  2.0988086e-01
 -4.4381972e-02
 -6.2464960e-03
 -1.1608137e-01
  2.5674263e-02
 -5.4586511e-02
 -3.0410921e-02
 -1.0722200e-03
  1.0005754e-01
  8.2929729e-04
  2.1021716e-02
  9.0207970e-03
 -1.0091951e-01
  1.1116308e-01
  2.0810392e-02
 -1.6335882e-03
 -4.1474267e-03
 -1.2711809e+00
 -9.8982356e-02
 -6.4130597e-02
  1.6254605e-01
  1.2672570e-01
  8.1776634e-02
  1.7560796e-01
  8.0063224e-02
  6.3498192e-02
 -1.7774103e-02
  1.7682562e-02
  2.4872489e-02
 -2.0450320e-02
  3.8943537e-02
 -1.3249787e-02
  1.2529367e-01
 -1.5661475e-01
  1.1481175e-01
  1.2814370e+00
  1.4030644e+00
  1.0874366e+00
  5.1536077e-01
  1.8393701e-01
 -3.0913475e-01
  1.5516353e+00
  2.1723807e-01
  6.7453980e-02
  3.0617754e-04
  2.5013907e-02
  3.6866527e-02
  1.3402532e-01
  3.5537854e-02
 -8.9595996e-02
  4.0636593e-03
 -1.7970011e-01
  6.3454174e-02
 -4.7065899e-02
 -1.0715596e-01
  2.1466026e-01
 -9.7105289e-03
 -2.1830194e-02
  1.0161565e-01
 -4.7779016e-02
  1.1359076e-01
  5.6977205e-02
 -8.1328690e-02
 -8.1503764e-02
  3.1285617e+00
 -4.1147071e-01
  1.1950278e-01
 -4.0914528e-02
 -1.7553513e-01
  2.3843665e-01
  6.4253666e-02
 -1.7813909e-03
 -1.1277119e+00
 -1.3958378e-01
 -4.1436139e-02
  3.8442798e-02
 -9.1647550e-02
  7.1772031e-02
  2.0582364e-01
 -1.5057990e-01
  1.3223697e-01
 -3.7558826e-03
 -2.9052570e-01
 -5.0202858e-02
 -5.8881827e-02
  2.3890078e-02
  1.6705632e-03
  1.0301279e+00
  4.6684396e-01
  8.9889228e-01
  4.9444180e+00
 -7.1282053e-01
  9.3782759e-01
  1.8720336e-01
 -5.3427811e+00
 -5.6474847e-01
  3.7491253e-01
  9.8768339e-02
 -2.0684963e-03
  3.4613502e-01
 -1.5023794e+00
  2.0910504e-01
  1.3483529e-02
 -2.4086924e-01
  1.3961772e+00
  3.8299897e-01
 -4.8648503e-01
 -1.1273571e+00
 -1.4205424e-01
  6.2316626e-01
 -1.8077357e-02
  9.8905213e-02
  8.1548154e-02
  4.4028111e-02
  3.6002274e+00
 -8.5744344e-02
 -5.0004446e-03
  5.5147856e-02
  1.8547536e-01
  9.3189800e-01
  1.3094328e-03
  3.6500967e-01
  7.6012826e-01
 -3.6293674e-02
  1.7847914e-01
 -1.0454704e+00
 -2.0441510e-02
 -8.4332597e-01
 -1.3054229e-01
  2.5274340e-02
  6.3566901e-02
  1.9910164e-02
 -1.4365740e-01
 -1.3702267e-01
  1.5536012e-01
 -2.0682542e-02
  1.2139624e-01
 -8.3325408e-02
  3.8082323e-03
  7.7422537e-02
 -4.6265665e-02
  1.9899058e-01
  1.3440582e-01
 -1.4384126e-02
 -1.4739540e-01
 -9.9780694e-02
  1.2936092e-02
 -6.4578094e-02
  1.1841265e-01
  1.7694188e-02
 -4.4172645e-02
  1.0947794e-01
 -8.0954097e-02
  5.9356548e-02
 -4.2855266e-02
  8.0790505e-02
  4.8273001e-02
  5.3940850e-01
  1.2456488e-01
  4.1480791e-02
  2.7927276e-02
 -9.6899725e-02
 -5.7148229e-02
 -1.1462552e-01
 -3.8053084e-02
  1.8805206e-02
  3.8768504e-02
  1.9041547e-01
 -3.4677420e-02
 -2.2247884e-02
  1.2424625e-01
  1.2542888e-02
 -2.3403868e-02
  1.1483192e-02
  9.3088644e-03
 -9.9825729e-03
 -1.9808723e-01
 -1.8022150e-01
  1.9066257e-02
 -3.9791681e-02
 -1.6203819e-01
  1.2593424e-01
  1.7581007e-02
 -4.4591475e-02
 -2.8585032e-02
 -8.0882207e-02
 -8.5101575e-03
 -4.1665353e-02
  3.3323709e-02
  5.5796350e-03
  2.3036813e-02
 -9.5743157e-02
 -1.5703402e-02
 -1.0857561e-01
 -6.2842285e-03
  1.0777820e-01
 -8.5003255e-04
  4.3549605e-02
  9.9221694e-01
 -1.0122707e+00
 -7.9169047e-01
 -2.1349674e-01
 -2.2103497e-01
  4.9923208e-01
 -2.2716992e-02
 -3.9974964e-01
  4.3258063e-02
  8.5977785e-02
  2.8175443e-02
 -1.0269719e-01
  9.6658364e-02
 -2.0461242e-01
  4.8342902e-02
  4.7366377e-02
 -4.3611206e-02
 -5.5814266e-02
  1.1807498e-01
 -2.9975447e-01
 -8.0969088e-02
 -2.5131779e-02
 -5.8476835e-02
 -1.6655082e-01
 -4.2800775e+00
 -4.0140800e-02
  4.8856493e-02
  6.2626106e-01
 -2.3711545e-02
 -1.1638799e+00
  1.9318731e-01
  5.2447196e-02
 -6.1479300e-02
 -3.4069922e-04
 -2.9851381e-02
 -6.9268495e-02
  8.9687698e-02
 -7.2082484e-01
  3.7912574e-01
 -2.0447135e-01
 -1.1889514e-02
  2.7205375e-01
  4.5384433e-02
 -2.8642477e-03
 -1.3331574e-01
  5.6971852e-02
  3.2881878e-02
 -3.0300766e-02
 -8.6447485e-02
 -1.3478750e-01
  8.7811917e-02
  3.7612975e-02
 -6.9024828e-03
  5.5625126e-02
 -4.9150243e-02
 -5.1977397e-03
  3.4103032e-02
 -3.6636740e-02
  3.5769083e-02
 -5.0004546e-02
 -5.2410685e-02
 -6.8558499e-02
 -5.6771211e-02
 -4.7443394e-02
  2.5454221e-02
  7.8120425e-02
  2.2203797e-01
  3.3713121e-02
  1.0243012e-01
  3.5167430e-02
 -1.0591854e-01
 -7.8822643e-02
 -1.1343446e-01
  3.9380789e-02
 -1.1901161e-02
  4.3572620e-02
 -7.7562518e-03
  7.1387932e-02
  1.0538004e-01
 -1.3435402e-02
 -4.2467345e-02
 -9.1342339e-03
 -1.9071557e-01
 -8.6831696e-02
 -1.4970245e-02
  6.0036103e-03
  1.5622425e-02
 -1.0509516e-01
  2.2165956e-02
  2.1478219e-01
  2.1510881e-01
  2.8097808e+00
 -1.5460295e-02
 -9.4242722e-02
 -8.2661994e-02
  1.2376574e-01
 -2.2660717e-01
  5.3998433e-02
 -1.3743076e-01
 -1.0857932e-01
 -3.9051384e-02
  2.5414020e-01
  3.0492000e-02
  7.1125119e-03
  2.7584531e-03
  6.9414014e-01
  1.3492457e+00
  3.7706141e+00
 -1.3173106e+00
 -6.0931911e+00
  3.3531763e-02
 -5.9210056e-01
  5.1154699e+00
 -2.4532304e+00
 -1.2609110e+00
 -9.3448883e-01
  2.0202992e-02
 -4.8224363e-02
  2.6334988e-02
  1.1249688e-01
 -7.8110397e-01
 -7.2210938e-01
  4.2975087e-02
 -7.1632229e-02
 -4.0505373e-01
 -2.8411889e-01
 -6.0817122e-02
 -2.3074042e-02
 -7.5193769e-01
 -4.7079051e-01
 -5.5108017e-01
 -1.9397410e-02
 -8.3292162e-01
  4.7586787e-02
  5.8271289e-01
  1.7534209e-02
 -1.3335166e+00
 -4.8021033e-02
 -1.8098901e-01
 -2.1092144e-01
 -1.9625068e-02
 -1.0819847e-02
 -1.3939457e+00
  5.3328913e-01
  9.0900367e-01
 -3.9042762e-01
 -2.1590048e-01
 -2.9307705e-01
  2.1009779e+00
 -1.3361329e-01
  1.8410341e-01
  2.0044181e-02
  1.9697127e+00
  2.1840243e-01
  4.0174771e-02
 -7.4408841e-03
  2.2061847e-02
 -2.0055528e-01
  2.0067798e-01
 -1.4496661e+00
 -4.3457931e-01
 -2.3049262e+00
  1.7257684e-01
  1.6480898e+00
  6.6556074e-02
 -1.0361596e+00
 -2.0845685e+00
  3.1364689e+00
 -1.0744673e-01
  9.0110889e-03
  5.2360442e-02
  1.0158677e-01
  4.8366225e-01
 -4.6972435e-02
  1.5593660e+00
 -5.5177975e-03
  2.3527692e-01
 -1.5511280e-01
 -1.8544653e-02
  1.6587304e+00
  3.4231868e-02
  9.7110115e-02
  5.8932889e-01
 -5.3662723e-01
  4.5520216e-02
  4.1830707e-01
  1.2409513e+00
 -6.9130480e-02
  1.7486213e+00
 -7.7279750e-03
  2.2850792e+00
  5.7996679e-02
  1.6429489e-02
  1.3616866e-03
  9.5292252e-01
 -2.2087514e+00
 -1.6238102e-01
  5.9821405e-03
 -3.8509211e-01
 -7.2092585e-02
  7.2187936e-01
 -1.2353273e-02
 -1.6147679e-02
  1.7789608e-01
  2.6688127e-02
 -1.7954153e-01
  6.0803145e-01
 -6.8634398e-02
  4.2754009e-02
 -4.3026887e-02
 -3.9035541e-03
  1.1152037e-01
 -5.7099823e-02
 -2.9125527e-02
  7.2045857e-03
 -2.9547903e-01
  7.2457455e-02
  1.3439324e-01
  3.2219604e-02
  2.5458977e-01
 -1.5070242e-01
 -6.1202928e-02
  5.3458411e-02
 -6.7888163e-02
  5.3039685e-02
  2.0587776e-02
  4.1414187e-03
  4.6549805e-02
  1.2164136e-01
 -5.0814983e-02
  1.0834938e-01
 -8.5387103e-02
  5.5509988e-02
 -1.0110544e-02
  2.5595693e-02
 -8.8776387e-02
 -1.1319268e-01
 -4.6538264e-02
  9.8685250e-02
  9.1502115e-02
  4.3509763e-02
 -1.1882205e-01
 -1.8126642e-02
  8.4284790e-02
 -5.7773165e-02
  9.3953155e-02
 -3.9318956e-02
  8.1370687e-03
 -4.7355331e-02
  3.1247826e-03
  6.6531278e-02
 -9.5653292e-03
 -5.0758369e-02
  2.7446030e-02
 -4.2939700e-02
 -3.7059262e-02
  1.5382506e-01
  2.8149101e-01
 -6.7413874e-02
  7.4481420e-02
  7.2884813e-02
 -3.1620708e-01
 -3.6437571e-02
 -7.1769491e-02
  1.3628973e-01
 -2.4640523e-02
 -1.0524883e-02
  3.2451358e-02
  2.6819322e-02
 -8.3141457e-03
 -7.0618860e-02
 -1.0990494e-01
  2.4339461e-01
  1.5196529e-02
  1.6878873e-02
 -5.9621047e-02
  1.1402275e-01
  1.7855994e-01
  1.0086043e-01
 -1.6968736e-01
  6.3776687e-02
  4.5955312e-02
 -5.1524587e-02
  9.8138765e-02
 -5.4190535e-02
 -2.6603011e-02
 -5.4728169e-02
  6.2105942e-01
  2.6087021e-02
  1.1177012e-01
  3.2252863e-02
 -3.3510182e-02
  1.0557254e-01
 -2.7056683e-02
  5.6299783e-02
 -4.2190179e-03
  5.6719173e-02
  1.5509324e-01
  5.5591948e-02
  3.3809643e-03
  1.1501645e-01
 -7.0713632e-02
  2.3447623e-02
  1.4059756e-02
  5.2794110e-02
  2.6213658e-01
 -4.6730377e-02
 -1.6659865e-01
  3.7721485e-02
 -2.3350773e-02
 -4.2909816e-02
  5.8666248e-02
  3.6869545e-02
  6.2633209e-02
 -2.2804283e-01
  2.6853974e-03
  9.2430301e-02
  1.0464573e-01
  2.0817843e-01
  1.3063622e-02
 -5.3193107e-02
 -3.9725921e+00
 -9.7877723e-01
 -2.8871143e+00
 -3.5544059e+00
 -8.4877467e-01
  6.4117379e-02
 -9.9494673e-02
  1.6968718e+00
  4.8429523e+00
 -2.7027557e+00
 -2.7672908e-01
  3.8248295e-01
  6.5723181e-02
  1.7958681e-01
 -6.8363625e-01
  6.2289145e-02
  1.8408418e+00
  3.4512761e-01
 -2.5774252e-01
 -8.2240030e-02
  5.9030497e-01
  5.6288674e-02
  3.2201074e-02
  1.2722690e-01
 -1.1173098e-01
  4.2305130e-01
 -7.3579468e-02
  4.1779020e-01
 -4.8488468e-01
  2.0973780e+00
 -3.0864841e-01
  2.2558512e-01
 -1.5567726e-01
 -1.3569942e-01
  1.3565228e+00
 -1.0672323e-01
  1.5647775e+00
  1.0052533e+00
 -2.6849884e-01
 -8.8080615e-01
  1.6968167e+00
  1.0869387e+00
  1.3056175e+00
  2.3883046e-01
 -1.0416396e+00
  3.5061624e-02
 -1.5261713e+00
 -5.4315306e-02
  6.2053032e-02
  3.4394658e-01
  1.3583852e-01
  2.0661913e-01
 -1.8192764e-02
  9.7464487e-02
 -5.4842240e-01
  3.1550893e-01
  6.6929901e-01
  8.9298975e-01
 -1.8562438e+00
  5.8374363e-01
  2.4786098e+00
  6.2702757e-01
 -6.3986385e-01
 -1.4705424e-01
  8.2230997e-01
  7.3949707e-01
  1.7803143e-01
  3.2195312e-01
 -3.6128110e-01
  2.2140224e-01
  2.3118153e+00
 -8.2368031e-03
 -8.9885688e-01
  1.3961114e-01
  9.1257595e-02
  3.8385719e-01
 -4.8174020e-02
  7.6220825e-02
  6.9267213e-01
  3.8478713e+00
  3.0396554e+00
 -2.6889536e-01
 -1.4034611e-02
  2.5611079e+00
  9.1138762e-01
 -1.7784960e+00
  1.6617065e-02
  4.6064422e-01
 -1.2354352e-01
  1.8514341e+00
  1.9832379e+00
 -3.2076311e-01
  4.5062673e-01
 -1.7400379e-01
  3.0711460e-01
 -3.9155379e-02
  1.0639366e+00
  1.1368879e+00
  5.9709823e-01
 -3.3790570e-02
  1.1378305e-01
  1.4313249e-01
 -1.8462701e-01
 -8.8180125e-02
 -3.6417600e-02
 -1.5498899e-02
 -3.2673436e-01
  5.9575260e-02
 -1.8473791e-01
 -1.4803755e+00
 -2.1810255e+00
  5.0213208e+00
 -1.3020920e+00
  3.8867872e+00
  3.4071181e+00
  1.1672740e-01
 -2.0177808e+00
 -7.0244946e-02
 -4.8778456e-02
 -3.1173967e-02
  4.0274728e-02
 -1.0531758e+00
  2.2445526e-03
  1.2639783e-01
  2.0944697e-01
 -5.3412449e-02
  7.6312232e-01
 -4.9697423e-01
 -3.9230183e-01
  6.6560203e-01
  1.4064291e-02
 -2.4766101e-01
 -2.1483161e-02
  9.1886222e-03
  1.0084177e-01
 -1.3739729e+00
  1.7434163e-01
 -4.3026376e-01
 -6.8095732e-01
  1.9685280e-02
 -3.8336039e-01
 -3.0439058e-01
 -8.7003328e-02
 -2.8402445e-01
 -3.4980234e-02
 -1.0127338e+00
 -1.0711208e-01
 -6.0876686e-02
 -1.2927325e+00
  1.0892514e-01
 -1.4763449e-01
  8.7067410e-02
  3.0078149e-01
 -4.6229029e-01
  2.5859488e-02
 -1.6077827e-01
 -1.1955542e-01
  6.4762181e-01
  7.7989556e-02
  9.8475993e-02
 -8.0994621e-02
 -9.3559362e-02
  2.7881718e-01
  8.7974238e-01
  3.9223444e+00
  1.9390428e-02
  2.5065749e+00
  2.5335238e+00
 -5.0810986e+00
 -2.4529777e+00
  8.1164950e-01
  4.2868513e-01
  3.6632168e-01
  4.0659747e-01
 -3.1096885e-01
  9.1998070e-02
 -8.6757615e-03
 -7.7737188e-01
  9.4844438e-02
  1.4950451e+00
  2.9139946e+00
 -4.7060424e-01
  2.2330027e+00
 -6.0906893e-01
 -2.8609219e+00
  2.6360461e-02
 -5.1684791e-01
 -3.7226245e-01
  2.9139286e-02
  5.1643050e-01
 -1.0357887e+00
 -2.5584945e-01
  2.7457032e-01
 -1.0089952e+00
  1.0981941e-01
  7.6903832e-01
  2.2433207e+00
 -1.0085975e-01
 -1.3531183e+00
 -5.3665652e-03
 -1.7889909e-02
  1.1669465e+00
 -4.7698269e+00
  2.2034393e-01
  2.6619312e-01
 -2.7464404e+00
  1.0031173e+00
 -3.5515115e-01
  1.1540918e-01
 -2.1090823e-04
 -4.5776058e-02
 -1.9384867e-02
  1.4092340e-01
 -1.0527498e-01
 -3.0534265e-03
 -8.7164104e-02
 -2.1159798e-03
  1.0991772e-01
  1.9180287e-02
  2.5551779e-02
 -8.6041301e-02
 -4.0500343e-02
 -1.0017718e-01
 -5.3891003e-02
  2.5033008e-02
 -7.8699710e-03
  4.4452227e-03
 -1.7956153e-02
  2.1599164e+00
 -7.4267648e-02
  8.1579983e-02
  4.3513443e-02
  9.1163151e-02
 -4.4519514e-02
  7.8378558e-02
 -1.7745762e-01
 -1.4558892e-01
 -3.7242956e-02
 -3.5132837e-02
  1.3916817e-01
 -6.3873306e-03
  4.3726701e-02
 -3.7318941e-03
  5.2339787e-04
 -1.7829877e-01
 -1.2301990e-01
  1.2865016e-01
  1.5683687e-01
 -1.2518555e-01
  7.4927025e-02
 -7.3469125e-02
 -3.1584725e-02
  1.7694276e-02
 -3.6965022e-03
  1.0164389e-02
 -2.3554184e-02
 -1.5662193e-01
 -5.3459067e-02
  2.9470646e-03
  2.6696321e-02
  6.8072490e-02
  1.4744423e-01
 -5.5816665e-02
  1.7565313e-01
 -4.2348340e-02
  1.0547922e-01
  8.2883790e-02
 -5.7727977e-04
 -5.1946774e-02
  1.0635734e-01
 -1.2724804e+00
 -5.2454386e-02
 -7.2151697e-01
  1.5523426e-02
  1.0256908e+00
 -4.8078251e+00
  1.0342423e+00
 -9.9044919e-01
 -8.6264956e-01
  1.5872631e+00
  2.7661175e-01
  1.7777095e-02
  7.8741916e-02
  9.6344091e-02
 -1.6247623e-01
  6.8014927e-02
  4.1237342e-01
  1.8748419e-01
 -7.4911517e-01
 -3.0829404e-02
 -1.5487611e-01
  1.0465649e-03
  2.7452877e-01
 -8.5205093e-02
 -3.3289671e-03
 -1.9914787e-01
 -2.2014210e-01
  6.9289133e-02
  3.0230744e-02
 -1.0750615e-01
 -3.2282189e-02
 -4.0039727e-01
 -3.7659609e-01
 -5.7256669e-01
  6.5508187e-02
 -2.0022395e-01
 -7.7710223e-01
  6.6837497e-02
  8.2401460e-01
 -7.9797637e-03
 -1.2229866e-02
  1.4394756e-01
 -1.8708010e-01
  5.9772909e-02
  2.0482630e-01
  9.1919184e-02
 -8.1195533e-02
  3.5700597e-02
  1.0405619e-01
 -4.5745406e-02
 -3.3661075e-02
 -8.6203068e-02
 -2.7968885e-02
  3.0715705e-03
  2.7877553e+00
  3.2810385e+00
 -1.1178975e-02
  1.8491019e-01
  7.3806882e-01
 -6.3555580e-01
  1.2893205e+00
 -5.7312697e-01
 -3.1155777e-01
  2.3593371e+00
  6.2867528e-01
  4.3816036e-01
  1.2449044e+00
  6.9457650e-02
  1.0400966e+00
  4.5679310e-01
  6.2744087e-01
 -1.5572004e-01
  8.5723475e-02
  1.2756535e+00
  1.0706782e-01
 -2.0203296e-02
  6.5340072e-01
  4.3534702e-01
  8.8058388e-01
  1.8029448e+00
 -9.9631941e-01
 -7.1214609e-02
  1.2631361e+00
 -1.3835300e+00
  4.7196418e-01
  5.3478783e-01
  4.2555445e-01
  3.3058143e-01
  1.5589645e+00
  1.0303027e-03
 -6.9106477e-01
 -1.6494660e+00
 -3.0580192e+00
 -5.6216371e-01
 -1.2715156e+00
 -1.9440584e+00
  1.2126787e+00
  9.0843117e-01
  1.7940970e-02
 -2.3672180e-03
 -9.2520557e-02
 -8.6841188e-05
 -2.9821916e-02
 -1.2842281e-01
  2.2968231e-02
  7.8669807e-04
 -1.2796666e-01
  3.1274921e-01
 -2.0042077e-02
  2.3582022e+00
  3.5331205e-01
  1.3103720e+00
  8.2847077e-01
 -3.3500617e+00
  2.6100080e+00
 -1.0303949e-01
  5.5965519e-01
 -1.8653168e-01
 -2.0360548e-02
 -1.1449941e-01
  1.2917632e-01
  4.5986384e-01
  5.8443516e-01
  1.7362536e+00
  7.5118113e-01
 -7.8385144e-01
  1.3513681e+00
 -5.6435555e-01
  8.9139612e-03
  9.2260629e-02
 -1.8573575e-02
  2.0322423e+00
  3.3271304e-01
  1.2327921e+00
 -6.1360592e-01
  8.0626613e-01
 -9.9428117e-02
  4.1428477e-01
 -9.7124892e-01
 -5.8866107e-01
 -2.4495757e-01
  2.0690203e+00
  1.5886780e+00
 -5.9961152e-01
  1.4247792e-02
  5.4203671e-01
 -1.3911336e-02
  1.2611679e+00
 -1.2060610e+00
  1.8001133e-01
 -6.2240756e-01
 -2.6845860e-01
  5.6197697e-01
  4.2062696e-02
  2.4671093e-02
 -1.5381863e-02
  5.1554479e-02
 -1.8027838e-02
 -6.4874500e-02
 -1.9962831e-01
  1.4068067e-01
  9.0632930e-02
  4.9988017e-03
 -1.3379742e-01
 -1.2977701e+00
  1.1828543e+00
 -8.9499660e-02
  1.2541699e+00
 -2.5339587e+00
 -5.7534308e+00
 -7.7868134e-01
 -6.2694006e-02
 -7.9831171e-01
 -6.9523461e-02
  6.2000401e-02
 -2.1101882e+00
 -6.9837004e-01
  1.1171914e-01
 -1.9279902e+00
 -6.1251050e-01
  1.2733665e+00
  3.0651841e-01
  1.2564181e-02
  3.2207791e-02
 -2.1259632e+00
  4.1030400e-02
 -2.6366854e+00
 -6.6299617e-02
  1.6379882e-01
 -7.8728133e-01
  2.8480491e-01
 -5.6365561e-01
  2.6900339e-01
 -1.8034382e+00
  7.9946500e-01
  4.6902278e-01
  1.4028685e-01
 -9.1063619e-02
 -6.4086938e-01
 -2.2702093e-01
 -1.0928830e+00
 -3.3893651e-01
  1.3307910e+00
  6.4475781e-01
 -2.9614717e-01
 -9.4272047e-01
  4.7437008e-02
 -1.1511391e-01
  2.6676016e-02
 -6.7368639e-01
 -2.2435453e-02
  1.0833620e-01
 -7.0503224e-03
  5.0019715e-02
  2.3917658e-02
 -8.2487583e-02
  5.4193173e-02
  2.6096296e-01
  8.1389970e-01
 -3.9552908e+00
 -4.4247856e+00
  1.5992966e-01
 -5.8652991e-03
 -5.6830794e-01
  2.3455260e+00
 -1.4462176e-02
 -9.3827084e-02
 -4.6109822e-02
 -1.1871988e-03
 -5.1695835e-02
 -3.0162770e-01
 -4.1740190e-02
 -1.1669883e-01
 -4.8027831e-01
  4.5594564e-04
 -1.6540809e-01
 -1.6825671e-01
 -7.0369534e-02
 -2.6672473e-02
 -3.9399188e-02
 -3.8757782e-02
 -1.4705831e-02
  2.7102977e-02
 -2.2022703e-01
 -2.8473315e-01
 -2.5105972e+00
  4.2857537e-01
  4.0938607e-01
  3.4273881e-02
  5.6280917e-01
  1.1653240e-01
 -1.3924320e-01
 -8.5861939e-01
 -5.0201863e-01
  3.3534337e-02
  6.5653461e-01
 -1.7343869e+00
 -4.4635728e-02
  6.7574453e-01
  1.9189860e+00
 -2.1907237e+00
  1.5759410e-01
  7.3742278e-02
 -7.2160780e-02
 -1.9953569e-02
  3.9055325e-02
  4.4526353e-02
 -1.5119725e-01
 -4.2320196e-02
  6.6946164e-02
  3.5328913e+00
 -5.0599135e-02
 -2.7173452e+00
 -3.3154916e-02
  1.0661782e+00
 -8.8748150e+00
 -3.2165992e-01
  4.0239038e+00
 -4.2816858e+00
  1.6594282e+00
  8.1180945e-02
  2.8832878e-03
  4.8641946e-02
  2.2461112e-01
 -4.3341312e-01
  1.7146179e-01
  1.8828556e-01
 -2.4505088e-02
  5.0139058e-02
 -1.0728084e+00
 -3.7485376e-01
 -3.5287905e-01
  4.9898094e-01
  2.8074116e-03
 -1.1317210e+00
  4.1041613e-02
 -7.6348439e-02
 -9.3910277e-01
 -7.1450672e-03
  1.0087261e-01
 -6.2865101e-02
 -1.5864609e+00
  1.6328939e+00
 -3.1121541e-02
  1.6719976e-01
 -1.4328428e-02
  1.3089470e+00
 -2.6022805e-02
 -1.5747935e-01
  1.7939285e+00
  7.2457260e-01
  3.4438498e+00
 -1.2641348e+00
  3.0062437e+00
 -2.1381187e+00
  1.6101263e-01
  1.2616393e-01
  1.5959028e-02
  4.4468381e-03
 -5.1732217e-03
  2.3446927e-02
  6.5764517e-02
  6.5316342e-02
 -9.4317226e-03
 -2.8654024e-02
 -1.3184643e-01
 -5.5111624e-02
 -4.4748865e-02
  1.3820556e-02
  6.5147147e-02
  1.8796478e-01
  1.8016948e-01
 -4.0925089e-02
 -9.2245027e-02
 -1.4944916e-02
  6.0814068e-02
  3.7455384e-02
 -1.5407884e-01
  9.7386101e-03
  2.8463393e-01
  1.2429053e-02
 -5.9195634e-02
  9.6175842e-02
  5.2770529e-02
  1.8920171e-03
  9.2366375e-02
  1.0759567e-01
  1.7480655e-01
 -2.7329359e-02
  4.5210898e-02
 -8.1659958e-02
 -1.5547420e-02
  5.2899424e-02
 -3.4441803e-02
 -7.4432410e-02
 -2.0043368e-02
 -1.5453720e-02
 -5.1154219e-02
 -8.3219586e-03
  5.0525464e-02
 -1.2292907e-01
  8.2156159e-02
 -1.3592166e-01
  4.7072452e-02
 -1.2661451e-02
  1.5827062e-02
 -7.3170006e-02
  2.1629777e-02
  8.2850538e-02
 -6.8048048e-03
 -3.0273886e-02
 -6.2827198e-03
  2.0420382e-02
  5.7929778e-03
 -1.3340484e-02
  1.0014428e-01
 -8.7524019e-02
 -1.7743453e-02
 -2.3642734e-02
  1.4697962e-01
 -4.1587595e-02
 -2.4794750e+00
  3.8347172e-03
  8.4503822e-02
  3.3819869e-02
 -2.2654910e-02
 -6.5715566e-02
 -5.7492089e-05
  6.3962720e-02
  1.2864506e-01
 -9.2900977e-02
 -6.3487262e-02
 -2.7531958e-01
  1.5095176e-01
 -1.3077429e-01
 -2.2699006e-02
 -2.8236177e-02
 -6.9772482e-02
 -3.3703603e-02
  2.3135374e-01
 -2.2728105e+00
 -8.9579262e-02
  2.4097729e-02
  9.6757047e-02
  6.7355648e-02
 -5.8933496e-02
  2.1719171e-02
 -1.2872991e-02
  4.5148607e-02
  2.1125805e-02
 -1.4492586e-01
 -3.0061873e-02
 -3.4124532e-03
 -7.3396512e-03
 -3.7752587e-02
  5.2599430e-02
 -3.0271316e-02
 -3.6717564e-02
  6.7342378e-02
  2.5742820e-03
 -4.0137410e-02
  1.7910671e-01
  2.2163577e-02
 -4.1684504e-03
 -6.9831446e-02
 -1.0363831e-02
  1.9828429e-02
  1.1321609e-01
  1.2734442e-02
  5.5100739e-02
 -1.7531128e-01
  1.7024211e-03
 -7.7512276e-01
 -3.3835869e+00
  8.6690080e-01
  4.8621707e+00
  9.3065321e-01
 -1.2132211e+00
 -1.5821322e+00
  2.6765492e+00
  2.6863153e+00
  5.5141675e-01
 -4.0046796e-02
  9.0504569e-01
  4.7222473e-02
  1.5369433e+00
 -6.6843112e-03
  3.5386866e-01
  2.7986426e-02
  3.3080271e-01
  5.8754761e-02
  1.6471599e+00
  1.9019245e-01
 -1.5036967e+00
  2.2865670e+00
  4.8711976e-01
 -7.5329232e-01
 -5.9508435e-02
 -2.9723755e-01
 -1.3098432e-01
  5.3682679e-01
  1.6613463e-02
 -6.9148433e-01
  6.5240109e-01
  8.6815925e-03
  3.7936363e-01
  8.9506996e-01
 -2.9906813e-02
  5.9315681e-02
  4.2800917e-04
  2.6417900e-02
 -7.8424424e-01
  8.7116110e-01
  4.2221550e-02
  3.4108381e+00
  4.4474650e-02
 -9.0273812e-02
  8.2433268e-02
 -2.5985029e-01
 -2.7740045e-04
  8.6290082e-03
 -1.1523940e-01
  6.8544507e-02
 -2.5269118e-01
 -1.5331439e-02
  3.6932942e-02
  4.8388383e-01
  8.7182683e-01
  2.2693999e+00
 -1.9048464e+00
  1.5746107e+00
 -6.4153916e-01
  3.5852648e-04
  8.9922529e-01
  1.0723692e+00
 -1.6878835e+00
 -1.1289433e+00
 -2.3579232e-02
 -9.8070063e-02
  1.5065560e-01
 -1.0072825e+00
  5.9458915e-02
  5.3113019e-01
 -2.5832310e-01
  8.9235300e-01
 -2.0629516e-02
 -6.5242195e-01
 -8.1004342e-03
  1.1480735e-01
 -1.0936242e-02
 -3.0246720e-01
  1.9531807e-01
 -1.9633621e-01
 -1.0184819e+00
 -1.8261310e-01
 -8.3594270e-02
  1.1832852e-01
 -1.5250628e-02
 -1.6930525e+00
 -3.8069832e-01
  1.1100904e+00
  1.0004214e+00
 -2.7202599e+00
  5.6164008e-02
  9.7964597e-01
  5.9125996e-01
 -3.0981678e-01
 -2.6231776e-03
  1.5515085e+00
  1.3606871e+00
  5.2786416e-01
  9.7626045e-02
 -4.3529090e-02
 -5.5033784e-02
 -2.1217170e+00
  4.9456570e-02
 -2.2969685e-02
  4.1225290e-01
  1.7956487e-03
 -3.1621132e-02
 -2.4542496e-02
  3.2185242e-03
  2.1673951e+00
 -1.9328189e+00
  1.3190417e-01
 -2.6592080e-02
 -5.9886023e-02
 -2.3326292e+00
  3.2538161e-01
  9.6596412e-02
 -7.5128235e-02
  2.2869010e-01
 -3.2333169e-02
  1.8991390e+00
  5.7313877e-01
 -1.1702178e-01
 -6.6390377e-03
  4.7512673e-02
 -1.3937975e-01
 -3.8058855e-04
  2.8448435e-03
 -3.0565780e-02
  4.8578593e-01
  5.7877362e-01
  1.7367080e-01
 -9.7404579e-03
  5.4857437e-02
  2.4064131e-01
  6.2086242e-01
 -2.1097004e+00
 -2.2195756e-01
  2.1819894e+00
  2.0400364e+00
  2.3722398e-01
 -2.1253459e+00
 -6.4565830e-02
  1.3026893e+00
 -4.8017538e-01
 -6.1597514e-01
 -1.1906766e+00
  1.6963885e+00
  4.0641606e-01
  3.6330965e-01
 -1.2689381e+00
 -1.1582857e-01
 -4.2664430e-01
  1.7914562e-02
  3.4434974e-02
 -1.0388184e-01
  1.4328457e-01
  2.1483062e-02
  1.3103710e-01
 -3.0405290e-02
  1.4696282e-01
  4.4612855e-02
  1.6471854e+00
  4.6411735e-01
  2.1617267e-01
  2.6216462e-01
 -3.0510139e-01
  8.6776661e-03
  5.8150552e-03
 -2.6564857e-03
 -1.1349005e-01
 -1.6382986e-01
  1.1664693e-01
 -6.1126839e-02
  2.1142706e-01
  2.3480217e-01
 -9.6560642e-02
 -1.4807335e-01
 -8.3433680e-02
 -2.5495380e-01
 -4.6423948e-03
  1.9109540e-02
 -2.8228119e-02
 -2.2443718e-01
  2.9033253e-02
  2.3355434e-02
  9.2265364e-03
 -2.4561535e-04
  1.0094480e-02
 -2.1268611e-01
  4.0199864e-03
 -2.3974085e-01
 -1.6135390e+00
  7.8144640e-02
 -1.0655789e-02
 -3.5501596e-02
  4.6926323e-02
  4.4076377e-01
 -1.6738946e-02
  4.4710252e-02
 -1.7060485e-02
  1.7179236e-01
  1.0863148e-01
 -1.3335916e-01
 -1.2086800e-01
 -9.3312100e-02
 -5.8884552e-04
  1.8387238e-02
 -1.0995509e-01
 -2.0170113e-01
  2.1312283e-01
  8.0889724e-03
 -2.3187345e-01
  3.8550175e-03
  1.9375767e-01
 -1.4012254e+00
  4.2322931e+00
  4.7693419e-01
 -2.6494369e-01
  2.1057000e+00
  1.6312521e+00
 -1.9024602e-01
  9.7394776e-01
  3.9185071e+00
 -9.5920503e-01
  7.0654504e-02
  2.5507155e-01
 -1.8617921e-01
  7.2745091e-01
 -1.3965104e+00
  3.6722530e-02
  9.8659277e-02
 -1.2372719e+00
  4.9164480e-01
  5.4512268e-01
  3.7694124e-03
  6.7168526e-02
 -1.8161397e-01
 -2.8128734e-01
  2.8242913e-01
 -5.0981723e-02
 -3.9439622e-01
  1.3721091e+00
 -3.0815583e-01
 -6.2551282e-02
 -3.4797612e-01
  5.5187249e-01
 -6.2590373e-01
 -1.6634734e-02
  6.8913805e-01
  1.1281061e+00
 -3.9477205e-01
 -7.2968888e-01
 -2.4911387e+00
 -8.9236051e-01
  1.4111311e+00
 -1.5780827e-02
  1.9294072e+00
  3.4726062e-01
  1.0076452e+00
  1.8222679e-01
  8.6425126e-02
  1.5691593e-01
 -1.8194497e-01
 -1.0262580e-01
  3.1791899e-02
 -1.9929985e-02
  3.5422690e-02
  1.1232457e-01
  7.5405605e-02
 -7.4938916e-02
  5.9933707e-02
  9.2875546e-01
  2.6147997e+00
 -8.9151973e-01
 -4.3814104e-02
  1.5402432e-01
 -2.4004552e+00
 -5.5810750e-02
 -3.4114797e-02
  6.1977070e-02
  1.3383153e-01
  2.0253535e-02
  1.0929246e-02
  4.0055062e-03
  4.0857431e-02
 -1.1004886e-02
 -9.0645365e-03
 -1.8343583e-02
 -9.6807636e-02
  1.3423324e-01
 -1.2020563e-02
  3.1161737e-02
 -9.8496154e-02
 -1.2264927e-01
 -6.3242562e-02
  4.1639272e-02
  8.2760938e-02
 -1.0120303e-02
 -1.6232107e-02
  2.7137622e-02
 -2.4660330e-02
 -1.1966385e-02
  5.5469647e-02
  3.9336932e-01
  3.0820353e-02
  6.3550308e-02
  1.6172392e-02
  1.0986192e-01
  1.1565105e-01
  6.4456627e-02
 -9.8458141e-02
 -1.0858339e-01
 -1.5009564e-01
 -2.8483901e-02
 -3.9951680e-03
 -5.5351432e-02
  4.1665003e-02
 -3.4169607e-02
  1.5081627e-02
  2.0648062e-02
  7.9854690e-02
  5.4836225e-02
 -4.3661363e-02
  1.6130751e-01
  4.2707756e-02
  3.1292966e-01
  1.4868343e+00
 -9.6480533e-02
 -2.1188483e-02
  3.5458526e-01
  6.2874146e-02
  2.1890972e-03
  5.2768182e-02
 -3.5155144e-02
  9.0250209e-02
 -2.8227689e-02
  4.6914946e-02
  7.3827952e-03
 -1.5494658e-01
 -1.4571844e-02
 -2.7100545e-01
 -1.6627444e-02
  2.6166419e-02
 -7.3169231e-02
  6.7251967e-04
  1.4563055e-01
 -3.6768816e-02
 -4.1700166e-02
  2.6785471e-02
  1.2590058e-01
  2.8664807e-02
 -2.4367787e-02
 -2.0033589e-01
 -2.6715320e-02
 -4.3204511e-03
 -4.7409445e-02
 -1.5804078e-03
  2.6413616e-02
 -5.0300524e-02
  2.3034927e-04
  4.1261256e-02
  7.9741366e-02
 -9.6230218e-03
 -6.0593050e-02
 -1.9843355e+00
 -5.3926118e-02
 -1.1799539e-01
 -3.1084452e-02
  2.1270467e-01
 -1.2924800e-02
  1.4348017e-01
 -1.8645440e-01
  3.5878330e-02
 -8.9162417e-02
 -1.1088160e-02
 -8.0326013e-03
 -1.3484060e-02
  2.7729340e+00
  8.5351974e-01
 -1.4638171e+00
  1.4110098e+00
  5.6158915e+00
  1.0493606e+00
 -7.3937394e-02
 -5.4018974e-01
  3.1551987e-01
 -4.7985382e-02
  2.2996191e-04
  3.9185267e-02
  9.9481696e-01
 -1.2206208e-03
 -9.0213716e-02
 -3.7367333e-02
 -4.9194954e-02
  8.5163766e-01
  2.1579365e-01
  9.2616791e-01
  1.3489796e-01
  6.4163484e-02
  1.8728498e-01
  2.4850737e-01
  7.9459786e-02
  1.1366492e-02
 -8.5040867e-01
 -1.4530418e-03
 -2.7948093e-01
  4.7018182e-02
  5.3441381e-01
  5.6867921e-01
 -1.5211591e-02
 -4.1677747e-03
  6.2076017e-02
 -8.1435822e-02
 -4.2348975e-01
  1.9760640e-01
  6.9089293e-01
  5.5483979e-01
 -4.1196689e-02
 -2.1001893e-01
 -4.3425062e-01
  2.4747553e+00
 -6.0792051e-02
  4.0933341e-02
 -3.3303905e-02
  9.0421692e-02
 -2.3983553e-02
 -3.1683225e-02
 -9.2635915e-02
 -5.7825507e-03
  4.2068873e-02
 -4.9977060e-03
  6.6740379e-02
  3.4352023e-02
  3.5843611e-01
 -4.4212914e-01
 -8.7752509e-01
  9.2869751e-02
 -1.7342454e+00
  1.3597707e-03
  9.5088732e-01
  1.5112959e-01
  9.0738676e-02
 -1.3543729e-02
  1.3810363e-01
 -5.0284974e-02
  9.4628610e-02
  1.2001686e-01
 -4.9850557e-02
  4.2468801e-02
  7.4858868e-01
 -2.4205971e-01
 -3.9302227e-01
  8.2728408e-02
 -5.4687697e-01
  3.0201703e-02
 -4.1230860e-01
 -9.8929703e-01
  2.1723554e-02
 -2.1680625e-01
  3.2176070e-02
 -6.3596630e-01
 -9.2869185e-02
  6.3702099e-02
  1.1552309e+00
  5.2528273e-02
  8.4839769e-02
 -1.0048138e+00
 -4.9501382e-02
  7.4711502e-02
  6.1221006e-03
 -2.7176118e-01
  9.6966900e-02
 -1.2943407e+00
 -4.9406119e-02
  1.6590042e-01
  7.2849564e-02
  3.1863162e-01
 -5.4284770e-02
 -2.1039976e-02
 -6.7068450e-02
  3.5471227e-02
 -8.1803270e-02
 -2.0142980e-02
 -1.1292682e-02
 -2.0051212e+00
  2.8935742e-02
  4.1157198e+00
 -2.9050391e+00
  9.2038828e-01
  3.2413716e+00
  3.6128712e-04
 -1.0168486e+00
  2.6080723e+00
 -1.0708132e+00
 -1.9015293e-01
 -1.1086392e+00
 -8.4734720e-01
 -2.7354007e+00
  2.6800066e-02
  1.0184819e+00
 -2.5188020e-01
 -1.9368848e-01
 -1.1419181e+00
  1.2288047e+00
  2.7698362e-01
  6.9769394e-01
  9.8008847e-01
 -5.6151927e-01
  7.3134297e-01
  7.2242223e-02
 -7.2981411e-01
  2.1205449e-02
  5.2366838e-02
  2.0465639e+00
  3.2658961e-01
  3.1752970e+00
  3.3523085e+00
 -1.7196487e+00
  6.8628711e-01
  7.7268854e-02
  6.1630243e-01
 -9.9795389e-01
  2.2479814e-01
 -1.2580808e-02
  5.6807418e+00
  1.8163867e+00
  7.0701373e-01
  4.8173046e-01
 -8.2648754e-01
 -6.8827170e-01
  2.7013639e-02
  1.9884899e-02
  1.0497224e-02
 -4.9809098e-02
 -4.2900443e-01
 -3.3805612e-02
  2.1325529e-01
 -6.4443588e-02
 -2.2300500e-02
  2.2789558e-02
 -1.0773535e-01
 -1.8395416e+00
 -2.2034496e-02
  6.2635481e-02
 -6.1896846e-02
  8.9750811e-02
 -3.9482195e-02
 -6.7948543e-02
 -1.3790120e-01
 -1.5198356e-01
  5.3591028e-02
  3.1831603e-02
 -7.3830947e-02
  4.3151073e-02
  4.0268335e-02
  3.2489635e-02
 -1.2895723e-01
 -4.1836254e-02
 -8.3211854e-02
  1.5214455e-02
 -3.4925393e-03
  5.6571227e-02
  1.2068173e-01
  8.7751364e-03
  2.2323416e-01
  2.2882765e-02
  2.7464968e-01
  7.3065674e-03
  6.4173657e-03
 -2.1907112e-02
  2.7972093e-02
 -8.0079138e-02
 -2.7196348e-02
  8.4330089e-02
 -3.0605364e-01
 -4.4713698e-02
  7.4893095e-02
 -1.0179833e-01
  1.3418363e-01
  1.7525989e-01
  2.2721642e-01
  2.5144432e-02
 -5.0685555e-02
  1.9310392e-02
  2.6021192e-03
 -1.3899648e-01
  2.4105655e-02
 -9.8866068e-02
  1.2493951e-01
  1.0787919e-01
  1.0711252e-02
 -1.2398136e-01
 -7.1951956e-02
 -1.1697707e-01
  1.3318686e-01
 -2.0140694e-01
 -4.4665117e-02
 -2.9364152e-02
 -1.2803636e-02
 -5.7741772e-02
  9.8531567e-02
 -1.2523963e-01
  7.4525788e-02
 -2.6040040e-02
  6.9737010e-02
  1.5343213e-02
 -8.1464395e-02
  9.1289446e-02
 -2.7756017e-02
  4.3668326e-02
  1.6623692e-01
  4.2745952e-02
 -1.4552720e-02
 -4.1467786e-02
 -1.5041984e-02
  9.8337136e-02
  7.0200093e-02
  2.3338987e-01
  3.6512725e-02
  2.7494207e-02
  4.7915649e-02
 -2.2179192e-01
 -9.9355072e-02
 -4.2589612e-02
 -6.2975980e-02
  5.7401035e-02
  4.0306542e-02
 -1.0562077e-02
 -1.6092637e-01
 -1.0956562e-01
 -3.1269785e-02
  2.2614377e-02
  7.0332228e-03
  1.0255952e-01
 -6.2947601e-02
  1.9601838e-01
  2.3090717e-01
 -5.6049425e-02
 -1.9849934e-01
 -6.3855029e-03
  8.8365622e-02
 -9.9619783e-02
 -3.7444796e-02
  3.4455832e-02
 -1.9216323e-01
 -1.4623914e-02
 -4.5140557e-02
 -5.4369181e-02
  1.7052217e-01
  2.5626063e+00
 -1.3794856e-01
  2.4373265e-02
 -7.7401686e-01
 -3.1086802e+00
 -4.3138411e-02
 -5.4705530e-01
  1.1214160e+00
 -3.1406991e-02
 -2.0040163e-01
  1.6746297e-01
  1.6626759e-02
 -8.7900639e-01
 -6.1641270e-01
 -8.2327694e-02
  9.9177239e-03
  2.1904232e-01
 -1.8586727e-03
  1.7277246e-03
 -5.8912659e-01
 -3.5408393e-01
  1.8695931e-01
 -4.8599048e-03
  8.4574170e-02
  5.4506004e-02
  8.1793584e-02
 -2.0000216e-02
  2.1748929e-03
 -1.0298511e+00
  1.7443368e-01
 -6.3851911e-01
 -3.2141814e-01
  9.0799570e-02
  5.2420938e-01
 -2.5696030e-03
 -7.9843521e-01
 -1.0384755e-02
  9.8639950e-02
  4.4241641e-02
 -6.3107055e-01
  1.6805198e-02
 -2.6340148e-01
 -1.0079220e-02
 -5.2017136e-04
 -5.0512645e-02
  7.6686647e-03
  4.1912172e-02
 -5.6107096e-02
 -2.4681134e-02
  2.8184094e-02
  4.1482069e-02
  6.6655152e-02
  7.8796342e-02
  4.3381851e-02
  5.9104168e-01
  7.3051471e-01
  3.5840765e-02
 -2.3883160e-02
  2.2170320e+00
  3.8890183e-01
  1.3840660e-02
 -3.0557716e-01
 -1.3353778e-01
 -5.2235392e-03
 -1.9575600e-01
  1.6035540e-02
 -2.3644051e-01
 -2.8904122e-01
 -9.3442157e-02
  2.1013102e-02
  1.2406155e-01
  4.7879804e-02
  5.7341754e-03
  2.7434804e-02
  5.2828304e-02
  3.0860293e-01
  1.1101531e-02
  3.3202972e-02
  9.3577830e-03
  3.4328288e-01
 -9.9021584e-02
  1.6608231e-01
 -8.9233018e-02
 -5.4361429e-02
 -8.8693312e-04
  2.8624794e-02
  1.6075913e-02
  1.9291155e-02
  5.6635700e-02
  5.0397165e-02
  7.5746812e-02
  2.7240917e-01
  1.9653548e-02
  8.4634311e-02
 -1.0253935e+00
  1.8064930e-01
  9.4842993e-02
 -1.9900542e-01
  1.0195788e-01
 -4.3928117e-02
  9.6168436e-02
  6.7788973e-03
  6.4531110e-02
  1.5085173e-01
 -5.2170161e-02
 -2.5547704e-01
  9.7584337e-02
 -8.6772349e-03
 -4.9674980e-02
 -1.2571248e-01
 -2.2405690e-02
 -6.5621018e-02
  5.1409110e-02
  5.6811754e-02
 -3.9412543e-02
 -2.1474105e-03
 -1.1816028e-02
 -1.8203512e-01
  2.9151642e-03
 -3.1624969e-02
  4.9881585e-02
  4.6098492e-01
  4.7864068e-02
  6.6642594e-03
 -1.2242821e-01
 -5.5972982e-02
  9.7568221e-02
  1.5510827e-01
  3.0476119e-02
 -1.2262511e-02
 -6.9242762e-03
 -6.1143622e-02
 -2.5164081e-02
 -2.9204142e-01
 -6.5017097e-02
  1.0980410e-01
  4.3740310e-03
 -2.7162155e-02
 -1.0254060e-02
 -3.5163160e-02
 -3.2662682e-02
  5.2689828e-02
 -3.7756875e-02
 -5.2701347e-02
  1.3250183e-02
 -5.9090298e-02
  2.3879691e-03
 -7.4073598e-02
  1.6480042e-02
  5.1434651e-02
  8.5726447e-02
 -1.4846824e-01
 -5.8705270e-01
 -8.2321554e-02
 -9.3829378e-02
  2.6698619e-02
  1.4924191e-01
  3.4606254e-03
 -3.4467772e-02
 -3.6046840e-02
  9.5164729e-03
 -1.4513823e-01
 -5.7630010e-02
 -2.2082248e-01
 -2.5376859e-01
 -1.0461108e-03
 -1.0571475e-01
  3.8984448e-02
 -2.8261753e-02
 -3.0407892e-03
  1.0773230e-01
  9.3767107e-02
  1.0528153e-02
 -4.8169874e-02
  2.3681049e-01
  5.7747614e-02
  4.2115962e-03
 -8.0655282e-03
 -4.8365436e-02
  1.3786333e+00
 -9.1689751e-03
  3.1776801e-02
 -1.9873803e-02
 -4.0808868e-02
 -5.4585943e-03
 -2.0790273e-01
  4.2394020e-02
  4.7886685e-02
 -5.4368131e-02
 -2.0036913e-01
  1.9099530e-02
 -3.7312896e-03
 -2.2134416e-02
  7.4349612e-02
  7.1832456e-02
 -2.0883188e-01
 -1.5419634e-01
  2.7267295e-03
 -8.9204058e-02
  2.8603435e-02
  5.7402525e-02
  7.3693059e-02
 -3.1172810e-02
  5.4542147e-02
  1.5615590e-01
 -4.0699091e-02
  3.5940605e-01
  1.7502305e-01
 -2.0216323e-02
  2.4909331e-01
  1.3277109e-01
 -1.4015503e-01
  1.2987472e-02
 -1.0148315e+00
 -4.0476923e+00
  2.9819381e-01
 -8.4295696e-01
  4.7308025e+00
  4.4223391e-02
 -5.0989723e-01
 -1.8056860e+00
  2.1161406e+00
  8.5623634e-01
  5.3933436e-01
  2.6910665e+00
 -1.2819390e+00
  1.7476753e+00
  1.5008234e+00
 -2.8317635e+00
  2.6746397e+00
 -1.1982089e+00
 -9.7492480e-01
  9.0533030e-01
  1.2038827e+00
  7.1309114e-01
  1.2622228e+00
 -2.6643142e-04
 -1.2902663e+00
  2.8130047e+00
 -6.7682195e-01
 -1.1978403e+00
  1.3205345e-01
  2.9627681e-02
  1.1932689e+00
  6.8379349e-01
  7.7751637e-01
  3.0442590e-03
  2.1197662e+00
 -1.6406077e+00
 -2.1614954e+00
 -4.3564922e-01
 -1.4186749e+00
  1.6382895e+00
  3.6418533e+00
  3.3128688e-01
 -1.5673810e+00
  1.9989107e+00
 -6.0397148e-01
 -2.0305490e-02
  3.3510116e-01
  3.3736315e-02
  2.1210235e-01
 -5.2166838e-02
 -4.5072371e-03
 -2.4407409e-02
  1.4457878e-02
 -7.5013287e-02
 -3.1165302e-02
  3.0095698e-03
  2.0044297e-02
  2.8944263e+00
  4.4551577e-02
  5.4115776e-02
  7.7899750e-03
 -2.9847392e-01
  1.0823051e-02
  1.6221431e-01
 -4.2419784e-02
 -6.2716216e-02
  1.7893903e-02
  2.0161012e-02
 -4.4304375e-02
  2.7971020e-01
 -1.0270575e-02
  3.5564866e-02
  1.8580016e-01
  1.7980419e-02
  4.9602542e-02
  3.9158884e-02
  6.2333621e-02
  1.0859380e-01
  2.3738655e-01
  4.9993452e-02
  5.1348832e-02
 -1.2783523e-01
  4.2293098e-02
 -8.2471773e-02
 -1.4507139e-01
 -1.7364690e-01
  1.9832905e-02
  8.2898185e-02
 -1.2371766e-01
  5.6731129e-01
  7.2059907e-02
 -2.3584925e-02
 -2.0657377e-01
  1.5103245e-01
 -8.6425103e-02
  3.3111901e-03
  1.2807497e-01
 -5.0150003e-02
  1.2693730e-01
 -1.0992742e-01
 -3.8682044e-02
 -2.6656499e-02
  9.9974126e-03
 -6.6116795e-02
  2.0018534e-01
 -1.5030818e-01
 -4.1939307e-02
 -2.1222527e-01
  1.6226739e-03
  7.0083760e-02
 -1.4777987e-02
  2.9776141e-01
 -5.0384521e-01
  1.7600624e-01
  1.8744904e-03
 -4.1265871e-02
 -5.9489753e-02
 -1.0029918e-02
  2.5254693e-02
 -2.6167229e-01
  6.1694458e-02
 -1.2883610e-01
  2.8265087e-02
  2.5539443e-02
  2.9090515e-01
  1.3087530e-01
  9.2282267e-03
  3.5361640e-04
 -5.1545821e-02
 -1.5799198e-01
 -5.8948278e-02
 -1.6711929e-01
  5.3173419e-02
  1.7655259e-01
 -1.7983770e-01
  1.4692405e-01
 -3.5679538e-02
 -1.1754413e-01
 -2.3417604e-01
  9.5633574e-02
  2.6229911e-02
 -3.8085390e-02
  5.2371104e-03
  9.6966058e-02
  5.3191196e-02
 -6.0707666e-03
  1.7258523e-02
  8.1108943e-02
 -8.7184593e-02
  6.6538829e-01
  6.4484023e-02
  7.8762472e-02
  4.9458545e-01
  3.5851594e-02
 -5.9434259e-03
 -6.8875956e-03
 -1.8086064e-01
 -6.8618320e-02
 -6.2982470e-02
  1.1184034e-01
  6.1630161e-04
 -3.4044866e-02
 -3.2583527e-02
  1.3933164e-01
 -4.1512702e-02
  7.8755565e-02
 -2.3068050e-01
  4.3140508e-02
  7.5518154e-04
 -3.1246873e-02
  2.9797103e-02
 -2.2068711e-02
  1.3173413e-02
 -4.7208942e-02
 -1.9909479e-02
 -9.6558928e-02
  9.5027782e-02
  6.9335975e-02
 -5.6841780e-02
  2.4485379e-01
  4.4633411e-03
  1.0089135e-02
  6.8456784e-02
  1.1080316e-01
  3.0221889e-02
 -2.2022745e-02
  3.3540722e-02
 -1.1150467e-01
 -2.1702617e-02
  2.2998221e-01
  2.2563692e-03
  7.4221235e-04
 -7.3628747e-03
  1.9633390e-01
 -5.4854818e-02
  3.4353388e-03
 -1.7959267e-01
  8.6142115e-02
  5.6664225e-02
 -6.7725644e-04
  1.4367032e-01
 -1.2984203e-01
  8.4640138e-02
  1.3708691e-01
  2.8140306e-02
 -1.3752185e-02
  2.2526409e-02
 -6.8262793e-02
 -9.6679050e-03
  9.5652834e-02
  5.0557803e-02
 -8.5309014e-02
  3.5072975e-03
  2.6448383e-03
  8.8151343e-02
 -3.1189673e-04
 -1.4901505e-01
 -6.6660643e-02
 -6.0826140e-03
 -2.0498214e+00
  3.5353118e-01
 -8.7898299e-03
 -7.2204344e-02
  1.9232340e+00
 -1.9597521e-01
 -3.3806154e-01
 -1.5160644e-01
 -7.3129453e-02
  2.9474944e-02
 -7.9119138e-02
  8.9844078e-02
 -4.2829290e-02
 -1.6606823e-01
 -5.9692539e-02
 -1.2663488e-01
 -3.3777601e-01
  6.5042324e-02
  2.0358022e-02
 -5.4977898e-02
 -1.4389627e-01
  1.5116610e-01
 -6.2746028e-03
  4.6026722e-02
  1.1792744e-01
  7.8675851e-02
  1.9858575e-01
  6.0842957e-02
 -7.5801134e-01
  7.9865083e-02
 -6.5071446e-01
 -2.0430434e+00
 -1.0304711e-02
  9.9546677e-03
  6.3555188e-02
 -2.2986524e-02
  1.5003937e-01
 -2.5032043e-01
 -1.9783502e-02
 -2.8316563e-01
 -3.6575644e+00
  7.4473649e-02
  5.2470017e-02
 -4.0176466e-02
 -4.4753511e-02
 -1.1525417e-01
 -3.3688492e-01
 -5.5569332e-02
 -1.1612247e-02
 -7.9321876e-02
  7.5556539e-02
  1.1434857e+00
  2.7509050e+00
  2.4441636e+00
 -5.3580028e-01
 -4.4335275e+00
 -9.8785318e-02
  1.5723634e-01
 -8.3048686e-02
 -6.9432635e+00
 -1.1694738e+00
 -4.4449769e-02
 -1.2984310e-01
  4.9900526e-01
 -1.4240562e+00
 -2.9083709e-03
  7.0890319e-01
 -2.9738078e-01
 -4.9187575e-02
 -8.2919002e-01
  5.6840867e-01
 -1.3254780e+00
  8.2881659e-01
 -9.8510063e-01
 -8.2519096e-01
  2.1666205e+00
 -8.1671810e+00
  2.7839322e-02
 -1.3881308e+00
  3.5896578e-01
 -3.5612747e-02
  1.3687527e+00
 -2.4129663e+00
 -7.1445453e-01
 -2.5870031e-01
 -1.1568887e+00
  3.2117887e+00
  8.4069008e-01
  1.1810455e+00
  6.2929302e-01
  2.0619130e+00
 -1.0826572e+00
  4.3544717e-02
 -6.9430918e-01
 -2.5642186e-01
  1.7032875e+00
 -5.0357950e-01
  2.2717241e-02
  2.7453024e-02
  1.8945299e-02
  2.0540191e-01
  1.0399419e-02
  2.8690010e-01
  7.4237157e-03
  5.8639493e-02
  1.0755035e-02
 -1.9739258e-01
  2.5251031e-02
  9.7104572e-02
  1.1286531e-01
  3.2870579e-01
  7.8575402e-02
  2.7736191e-02
 -2.2909937e-02
  3.7703294e-02
 -3.2940223e-03
  2.8350414e-03
  2.8087446e-02
  1.3157596e-01
 -1.9954916e-02
  4.5382292e-03
 -1.2029512e-01
  1.1682438e-03
  8.6753435e-02
 -8.1563750e-03
 -2.7269239e-02
 -2.1633530e-02
  2.4772607e-02
 -9.7056655e-03
 -1.0571456e-02
 -1.5704793e-01
 -9.9990606e-02
 -7.8566447e-02
 -4.5622412e-02
  3.6947373e-02
  6.6521652e-02
 -1.3812775e-02
 -7.3931828e-02
 -3.3767574e-02
 -2.4695152e-01
  1.5212998e-01
 -7.5778379e-03
  1.4818745e-02
  1.6870700e-04
  6.0842622e-02
  2.8445896e-02
 -2.3824085e-01
  6.1985124e-03
 -6.0408093e-02
 -9.6226878e-02
  1.6627586e-01
 -4.0192265e-02
  8.6959027e-02
 -1.0558579e-01
 -6.8345189e-02
 -2.1054883e-02
  1.5551318e-01
 -4.3559417e-02
  3.6946596e-03
  8.9433581e-01
 -6.3867241e-01
  2.2084143e+00
 -3.2185814e+00
  5.9765310e+00
  1.8152888e+00
 -1.8473847e+00
 -1.5324242e+00
  8.8374186e-01
 -6.4400679e-01
 -1.3393604e+00
 -3.9650038e-01
  9.2285629e-03
 -1.4426686e+00
 -8.6989082e-02
  2.6359525e-01
 -2.3089707e-01
 -2.9288173e-01
  9.7896814e-01
 -4.8923501e-01
  1.7068863e-02
  6.5500534e-01
 -1.0121585e+00
  3.6778605e-01
 -3.4484882e-02
 -1.1149121e-01
  1.3702165e-01
  9.8685849e-01
  3.8271651e-01
 -1.3812424e-01
  2.9412502e-01
 -1.1350063e-01
 -2.9811352e-01
  4.5930731e-01
 -8.5646771e-02
 -9.5950747e-01
  1.5697834e+00
 -3.0734925e-02
  2.6778366e-02
 -2.3143536e-01
 -1.1926722e-01
 -2.0830315e-02
  2.1601123e-01
 -6.3112840e-02
 -2.7753660e-02
  6.0897216e-02
  4.3504122e-03
 -7.7029325e-02
  4.7724852e-03
 -1.2048630e-01
 -1.3037755e-01
 -1.9613521e-03
 -1.6042838e-02
  1.6458221e-01
 -3.3489072e-01
  8.7163128e-02
  7.9300106e-02
 -3.5912576e-01
 -1.5629163e-01
 -2.7059436e-02
 -2.9334048e-02
 -3.2014161e-02
  1.3015550e-01
  2.1423910e-02
  6.0321283e-02
 -9.0164445e-02
 -3.6377106e-02
 -2.2650493e-02
 -2.7328858e-03
  5.0947480e-02
 -1.8530254e-01
  3.5214521e-02
 -1.5796155e-01
  8.2454264e-02
  1.1577146e-02
 -8.2181310e-03
  2.5314569e-02
 -7.0702739e-02
 -4.6157882e-02
  1.1243990e-02
  5.1850276e-03
 -9.3077712e-02
  1.5728172e-02
 -6.6760294e-02
 -7.1068250e-02
  6.8270490e-02
 -7.6479176e-03
 -5.8099724e-02
 -8.0169424e-02
 -6.3122787e-02
 -2.3568244e-01
  9.6408077e-02
 -2.0907038e-01
  4.1901115e-02
 -1.2958436e-01
 -1.6329099e-03
 -7.3591238e-03
 -1.3396131e-02
 -4.4858074e-03
 -6.8633825e-02
  6.8692245e-02
  1.1687800e-01
 -3.0732293e-02
 -2.3001214e-02
  4.5250196e-02
 -1.1171863e-02
 -3.6207743e-02
  5.0102908e-02
 -7.7606052e-01
 -6.9209285e-02
 -8.6752731e-01
  2.4391116e-01
  6.2877345e-01
 -1.1426987e+01
  2.6212358e-01
 -6.4507163e-01
 -6.0292208e-01
 -1.1531214e-01
  5.6381834e-01
  1.1854985e-02
 -7.4470066e-02
 -8.4723137e-02
  2.0330758e+00
 -2.0569239e+00
 -3.8422234e-02
 -1.3962543e-01
 -1.1585420e-01
  9.7423412e-02
 -9.5775592e-01
  7.2820326e-03
 -2.3036051e-01
  1.9337541e-01
  3.1360701e-02
 -1.7120793e-02
 -1.0148631e-01
 -1.0781755e+00
  7.6486981e-01
  6.1378289e-02
 -2.6782626e-02
  4.3418664e-02
 -1.9017681e-02
  2.6593764e+00
 -1.5987368e-01
  1.1373998e+00
 -1.9207985e+00
  5.2538890e-01
 -9.3899794e-02
 -8.8737971e-01
  1.3635428e-01
  1.4061514e-01
  1.5282980e+00
 -8.3724129e-01
 -1.8251970e-01
  5.8045678e-02
 -3.1486946e-01
  9.6372645e-03
 -4.7164648e-03
 -6.6972268e-01
 -8.9761823e-02
  1.2880934e-02
  4.6272930e-02
 -2.8598187e-02
 -4.1001726e-02
  2.8864697e-01
 -3.9929628e-02
  3.5544179e-02
  1.2840003e-01
  3.2109150e-01
 -3.9678942e-02
  5.4798067e-02
 -8.0981841e-03
  5.3596601e-02
 -1.1118444e-01
  7.2753593e-02
 -7.6119485e-03
 -3.3483740e-02
  4.1791875e-02
 -1.2458080e-01
 -6.7108378e-02
 -1.3276687e-02
 -5.0591893e-04
  1.9286660e-03
  1.5060955e-01
 -1.0711134e-01
  1.0986980e-01
 -2.7236883e-02
  4.5629051e-03
  2.1402625e-02
 -1.4071797e-01
 -1.0611411e-01
 -2.0238611e-01
  1.3285975e-01
  6.8786286e-02
 -8.9207135e-02
  1.7769642e-01
 -1.3970889e-02
  5.2976917e-02
 -1.6803145e-02
 -6.6527098e-02
 -2.8983572e-01
  1.8350984e-01
  1.8836619e-02
 -1.5959723e-01
 -8.1920056e-03
 -1.3819043e-01
  6.5625265e-02
 -3.1666581e-02
 -8.2242927e-03
  8.6930759e-02
  1.0976104e-01
  2.8177761e-02
  2.8651494e-01
 -9.0718055e-03
  6.7880049e-02
  8.9451112e-02
  3.8530011e-02
 -1.9164439e+00
 -3.7481980e+00
  4.0964813e+00
  1.2712433e+00
 -1.5029597e-01
 -3.7353034e+00
  5.1291938e+00
 -4.0741615e+00
  2.3730759e-02
 -6.9479948e-01
  8.2667416e-01
  7.1626538e-03
 -1.1454975e-02
 -4.0749059e-04
 -1.1282178e+00
  5.0522172e-01
  3.7337955e-02
 -2.0399202e-01
  1.3319714e+00
 -1.3450783e+00
  6.3497059e-02
 -1.6924819e+00
  1.9079442e-01
  2.2727492e+00
  3.6664382e-01
  2.9897282e-01
 -1.6421403e+00
  5.0401294e-01
 -2.2553244e-01
  6.7244691e-01
 -9.4381756e-01
  1.2960857e+00
  2.6137390e+00
  1.6869363e+00
  5.9946653e-02
 -3.2019193e+00
  7.2313017e-01
 -1.8090928e-01
 -2.5594447e+00
 -7.3207897e-01
 -7.0371264e-01
  1.7202464e+00
  7.7012825e-01
  2.7188408e+00
 -1.5416923e+00
 -2.7592152e-02
  1.9221778e-01
  7.8315079e-02
  5.2337742e-01
 -5.7942096e-02
  1.4576498e-02
 -4.0157638e-02
  4.3481253e-02
  1.0215871e-01
  7.8310659e-03
  1.0013148e-02
 -1.8014200e-01
  8.9917743e-01
 -4.2805534e-02
  9.6800633e-02
  5.1407743e-02
 -9.9139810e-03
 -3.3549941e-01
  3.8967414e-03
  7.8752771e-02
  3.5365116e-02
  2.4048410e-01
  2.2955613e-01
 -7.1335994e-03
  2.7397215e-02
 -2.2054156e-02
  2.4081146e-02
  1.3244486e-01
 -1.4253462e-02
  5.6999940e-03
  2.9477311e-02
  2.6710685e-02
  4.6236582e-02
 -1.1397345e-01
  7.9520717e-02
 -4.7648977e-02
 -6.9159381e-02
  7.5607374e-02
  8.9591127e-03
 -3.7931469e-03
  1.2722697e-02
  3.8329903e-02
 -1.3445497e-02
  1.0245681e-03
 -6.0912076e-02
 -3.6895301e-02
 -7.6007894e-03
 -3.8112264e-02
  5.3298194e-02
  1.7886066e-01
  1.1070330e-02
  8.2202539e-02
  1.4690621e-01
 -1.3698691e-01
 -1.1471941e-01
  5.5504728e-02
 -3.5955958e-02
  1.2063345e-01
 -9.3922084e-03
 -2.6298255e-02
 -4.3304078e-03
 -2.0233119e-02
 -9.8597117e-02
  1.2676133e+00
 -6.2210965e-01
 -1.6149849e-01
 -1.3013358e+00
 -1.1933445e+00
  7.0486808e-01
 -1.8268642e-01
 -2.0666335e+00
 -6.8126380e-02
  3.3409521e-02
 -1.5650127e+00
  2.1082063e+00
 -7.3160991e-02
 -1.8467165e+00
 -4.1842908e-01
  2.6345046e+00
  6.4217687e-01
 -1.6188761e+00
  3.6952556e-03
 -6.2898731e-01
 -1.5173526e-01
  5.3168274e-02
  7.1945095e-01
  3.9665792e-02
 -4.2508613e-02
 -9.1594458e-02
 -3.4254722e-02
  1.0457352e+00
  1.4415066e+00
 -2.1785278e+00
  2.6315353e+00
  3.6844413e-03
  4.8961082e-01
 -1.1338474e+00
  5.9753430e-01
 -8.4538054e-01
  2.4035852e+00
  2.3502951e+00
  2.0000592e-02
 -5.4986364e-01
 -1.4041494e+00
  3.7168491e+00
 -7.5515395e-01
  2.8612025e+00
 -7.9977620e-01
 -9.5306799e-02
  1.1711678e-01
 -1.7682979e-01
  2.1227581e-02
  8.1384134e-01
  4.5892023e-02
 -2.3534998e-02
  1.3019567e-02
  4.7726978e-02
 -2.2727614e-02
  1.4977989e+00
 -1.0994062e+00
  2.3202453e+00
 -2.6349252e-01
 -4.0183654e+00
  2.6811113e+00
  1.8336340e+00
  8.5410231e-01
  1.2318060e+00
  5.7560865e-02
 -7.7313356e-02
  1.4600077e-01
  1.3183789e-01
  1.4772267e+00
  3.4695718e-01
  4.2860407e-01
  5.6903559e-01
  1.2416259e-01
  5.2211225e-01
 -1.2025191e-02
 -1.2560973e-01
  4.9937284e-01
  8.4690970e-01
  1.0331491e-01
  1.3026313e+00
 -1.0837754e-01
  2.7902269e-01
  9.3830025e-01
 -1.5131084e+00
 -1.2482479e+00
  6.9463509e-01
 -4.3279774e-02
  6.3549936e-01
 -5.5598634e-01
  2.8188567e+00
 -2.5127342e-01
 -1.1377997e+00
  1.7619896e+00
  1.3448413e-01
 -1.5394388e+00
 -5.5315977e-01
 -1.3435468e-01
  7.5187808e-01
 -6.6544637e-02
 -6.7421548e-02
  2.4428755e-02
  1.5162085e-01
 -2.9517529e-03
 -3.0150199e-01
  3.6199246e-02
  9.8335259e-02
  6.5057568e-02
  1.7935741e-01
  5.4298830e-03
  9.6282989e-02
 -5.7833549e-02
  2.2262044e-02
 -1.0891271e-01
 -2.0913360e-01
  1.0448498e-01
 -2.0346047e-01
  1.6484136e-02
 -7.6739684e-02
 -1.9690638e-02
 -1.1327580e-01
 -3.1779606e-02
 -5.0621446e-02
  1.1917058e-01
 -9.6923135e-02
 -1.5669089e-02
 -2.0861918e-02
 -4.7777284e-02
 -2.0641160e-01
 -5.6060534e-02
  9.6445214e-03
 -4.6867453e-03
  6.0441673e-02
  3.0532544e-02
  7.5388789e-02
 -6.0248710e-02
  6.1608423e-03
 -1.4318776e-01
 -5.0473069e-03
  5.2039333e-02
 -1.5843228e-01
 -5.9472942e-03
  1.7436197e-02
 -8.4593438e-02
  1.4451373e-01
  1.3838492e-01
  1.6241851e-01
  4.6689499e-02
  5.9237438e-03
 -4.1252438e-02
  2.0046148e-02
  5.7364367e-02
  7.1052647e-01
  1.3939038e-01
  5.0507654e-03
 -9.0337191e-03
  6.3223691e+00
 -1.1512406e-01
 -7.0777617e-02
 -2.0779133e-02
  8.5471179e-03
  8.5319774e-03
 -6.7928620e-02
  4.1218841e-01
  2.8480763e+00
  2.7807100e+00
  1.9128963e+00
  2.7939742e+00
 -1.0072314e+01
 -8.1652451e-01
  7.7628069e-02
 -1.3089482e+00
 -3.1602222e-02
 -2.8095499e-01
 -3.0017596e-01
 -2.7772104e-02
 -2.2644434e-02
 -8.5214537e-01
 -1.0161457e+00
 -1.3955811e-01
 -3.2711059e-02
  3.1243536e-01
  4.4663683e-01
  3.2758657e-02
 -1.3481966e+00
 -3.9857846e-01
  2.2441922e-02
 -1.4480187e-01
 -6.8464004e-02
 -1.4161316e-02
 -7.0608687e-01
  4.7510040e-01
  4.7806531e-01
 -2.7471450e-01
 -1.3904069e-01
 -6.0612375e-01
  5.2186400e-01
 -6.0969613e-02
 -9.3901910e-02
 -8.0254430e-01
  1.4452094e-01
 -1.3819090e+00
 -1.0080409e-01
 -2.6634617e-02
 -1.4230317e-01
  1.4221314e-01
 -5.2754646e-03
 -7.2221392e-01
  2.0129295e-01
 -7.7097870e-02
  1.0489158e-02
 -1.7719276e-02
 -1.5430108e-01
  4.1652054e-02
 -2.0886399e-01
 -2.4289014e-02
  2.1223571e-02
  3.1847298e-02
 -8.0115810e-02
 -1.1386634e-02
  1.3569604e-01
 -2.7391432e-02
 -6.4712562e-02
 -5.9798706e-02
 -3.8806681e-02
 -1.4204404e-01
  3.1491064e-02
  1.7182793e-01
 -1.5858954e-01
  6.2916512e-03
  2.8222851e-02
 -7.1463928e-02
  1.3801279e-02
  1.6286733e-02
  6.9054790e-02
  2.1110253e-01
 -4.0707182e-02
  2.4016261e-02
 -2.0382667e-01
  9.7904287e-02
 -9.8022647e-02
  1.1645178e-01
  1.1818579e-02
 -6.0433015e-02
 -3.3949975e-02
 -9.9010095e-03
 -1.5581271e-02
 -5.9258967e-04
  1.1453643e-01
 -1.1566696e-02
  6.3705601e-02
  1.6479746e-02
 -2.7879529e-02
 -1.5843023e-02
  1.5350507e-02
  9.2835203e-02
  3.8957391e-02
  2.8253850e-01
 -7.9048835e-02
 -1.5937345e-03
 -2.3997432e-02
  7.7185646e-02
  2.6087344e-02
 -1.6320089e-02
 -5.6039523e-03
 -6.9520444e-02
  2.3622816e-02
 -1.0190822e-01
  6.5262213e-02
 -8.7487930e-03
  3.0654022e-03
  4.7308769e-02
 -1.7077429e-03
 -1.7356701e-02
  8.5810688e-04
  5.5643491e-02
  5.2075069e-02
 -2.1223279e-02
 -7.7804320e-02
  2.3433939e-02
  5.2554641e-02
  8.4739141e-02
 -4.1760127e-03
  8.6597446e-03
  6.6824383e-03
  1.7087184e-02
  1.6500721e-02
  5.6625977e+00
  4.0957555e-02
  8.2751662e-02
  6.0942866e-02
 -5.6789830e-02
  5.8240309e-02
  4.7325682e-02
 -3.1661518e-02
  1.8351996e-02
 -5.0786888e-04
 -4.2782307e-02
  5.0777299e-03
 -9.4780169e-02
  7.8174032e-02
  3.7832789e-02
  2.8887916e-01
 -5.1400866e-02
  1.1961618e-01
  1.0872113e-01
 -5.4928251e-02
  2.1000640e-02
 -2.1113360e-01
  4.0237871e-03
  8.3224826e-02
 -2.1484990e-02
  2.3718288e-02
  2.8268373e-02
 -2.6192319e-02
 -1.9587259e-01
 -6.7776166e-02
 -1.4025440e-02
 -8.3680093e-02
  8.0988770e-03
  8.1155047e-02
 -3.8812637e-02
 -7.8023493e-02
 -5.1363714e-02
 -3.0248949e-02
 -5.5399679e-02
 -9.9746436e-01
  2.4111440e+00
  2.0484645e+00
 -1.0022403e+00
  6.4970694e+00
 -3.8541532e+00
 -9.8821169e-01
 -6.3011760e-01
  7.2738683e-01
 -3.5143711e-02
  1.9039975e-01
 -1.0112633e+00
  7.8567940e-01
 -2.5067458e-01
 -3.2546957e+00
 -2.5438845e-02
  3.5102892e-01
 -1.7926564e+00
 -8.4492677e-01
 -1.7405735e-01
  1.6659746e-02
  3.4174329e-01
 -4.4211698e-01
  5.7411295e-01
 -1.2527491e-01
  5.2910592e-02
 -2.6734778e-01
 -1.4290556e-01
 -5.6278180e-02
  1.4537321e+00
  1.7093228e+00
 -3.7764582e-01
  2.0971746e+00
  7.4504837e-02
 -1.9801924e+00
 -2.4215903e+00
 -2.8769037e-01
 -1.8761078e+00
  1.5562228e+00
  1.1639075e+00
 -2.9756142e-02
 -8.6517358e-01
  4.6245202e-02
  2.3178234e+00
 -4.6069054e-03
  1.3679564e-01
  5.2183617e-02
 -3.5377257e-02
 -6.4833902e-02
  6.5327451e-02
 -2.7937036e-02
 -2.6273918e-01
 -6.7336515e-02
  9.0296656e-01
  4.1341105e+00
 -1.5798666e+00
 -7.4772030e-01
 -2.6995444e+00
  6.1065084e-01
 -1.3599293e-01
 -3.6460562e+00
 -7.6347351e+00
 -1.0288025e-01
  7.6660645e-01
 -4.6573259e-02
  6.7398781e-01
 -1.6410236e+00
  1.6153808e+00
  3.2778273e+00
  1.1523671e-02
 -4.1810289e-02
  7.3731184e-01
 -3.5400286e-01
 -1.9307853e-01
  2.1926603e+00
 -7.3750548e-02
 -9.1683529e-02
  1.8811795e+00
 -2.4808346e-01
  4.0652946e-01
  5.2548641e-01
 -3.4402552e-01
 -1.8996462e+00
  3.2039467e-01
  1.3296722e+00
  1.0839334e-01
  4.1138444e-02
 -4.4041893e-01
  1.2533935e+00
 -8.3300167e-01
  9.5773274e-01
  5.7314195e-02
 -7.5950533e-02
 -1.2152548e+00
 -9.6607190e-01
  1.5256352e-02
 -1.5911337e-02
 -9.0890527e-02
 -1.0475238e-03
 -5.9874412e-03
  5.1968075e-02
 -5.7614669e-03
  2.6576594e-01
  3.7501402e-02
  1.3276871e+00
 -1.0868371e-01
  1.4465056e-01
  4.3412935e-02
 -5.5563908e-02
  9.4780594e-04
  1.0059711e-01
  7.5291231e-02
  6.3524805e-02
  4.0651213e-02
  4.9335416e-02
 -9.7856559e-03
 -9.2055067e-02
  2.0765156e-02
  2.1062590e-01
 -2.2899969e-02
 -2.4033092e-02
 -4.9336031e-02
  6.9575119e-03
  1.1228334e-01
  2.5831878e-02
  2.7303245e-02
  3.5571519e-02
  9.1254618e-03
  6.1999429e-02
  2.7935531e-02
 -4.8875172e-02
  1.4242144e-01
 -2.5316390e-01
  3.3102542e-02
  1.7626958e-01
  1.4892932e-02
 -1.2715301e-01
 -1.2529166e-01
 -1.7050853e-01
 -1.1193081e-01
  1.5372014e-01
  2.0095709e-01
  7.9184979e-02
  2.4911089e-02
 -6.5536834e-02
  7.7254109e-02
 -1.6900388e+00
  1.3145950e-01
 -5.9313599e-02
  7.0790373e-02
 -4.5168102e-03
  5.7800613e-02
 -1.8785954e-02
  1.0553867e-01
 -3.2930817e-02
  2.1017106e-02
 -1.3470268e-03
 -5.6855917e-02
  1.0108808e-01
  1.3336537e+00
  1.1487727e-03
 -5.0322320e-02
 -3.2828774e-02
  9.3001239e-03
 -6.6881478e-02
  3.1952891e-02
  5.3278036e-02
  1.7778434e+00
 -1.2618070e-02
 -1.5232784e-01
  3.1730205e-02
  1.4818184e-01
 -9.7691379e-02
  2.6487247e-03
  6.2147651e-02
  5.4934502e-02
 -1.2750582e-01
 -6.5887712e-02
 -2.8236700e-02
  2.3142174e-01
  2.8321545e-03
 -2.4869582e-02
 -1.9035184e+00
  7.0571378e-02
 -5.9816102e-03
 -4.8100963e-02
  2.8323989e-02
 -6.4799793e-02
 -3.6913797e-02
 -5.2176457e-02
  1.5087090e-02
  3.3545572e-02
 -4.8725266e-02
  2.4340395e-02
 -4.0652504e+00
 -8.3723418e-02
  1.7287411e-02
  1.7379966e-01
  1.0731614e-01
 -8.8046066e-02
  7.9728197e-03
 -6.9366887e-02
  5.9370287e-02
  6.6143289e-02
  1.0438202e-01
 -3.2527853e-02
  4.8230324e-02
 -3.8304638e-02
 -6.3672885e-02
  1.1826264e-01
 -3.0084528e-02
  1.6502222e-01
  4.1801471e-02
 -2.1349566e+00
  1.0869794e-01
 -5.5610523e+00
 -2.9849527e+00
  3.9222658e-01
  6.9401848e-01
 -4.5055742e+00
 -9.0726650e-01
 -3.6081676e-03
  2.1837034e+00
  1.8509828e+00
  5.6092674e-01
  1.5287731e+00
  5.7474798e-01
  2.3156471e+00
 -6.4612091e-01
  1.8310006e-01
 -3.3675931e-02
 -1.4218245e-01
  1.2109013e+00
  3.4104841e+00
 -9.2279253e-04
  2.8553119e-01
  1.4605093e+00
 -2.0166127e-01
  1.6229905e-01
  2.1477745e+00
  1.8987432e-01
  4.9409986e-01
  4.9965391e+00
  4.3225031e-02
  3.5498312e-01
  4.1113767e-01
  1.5463556e-01
  1.2070621e+00
 -5.3241417e-02
  1.1131036e+00
 -4.1403443e-01
  5.3616400e+00
 -1.7327605e-02
  1.3030356e-01
 -1.9602912e-02
  1.0885013e+00
 -7.2307624e-02
  1.3743649e-01
 -1.2240551e-02
  1.0939403e+00
 -2.4611618e-02
 -2.3670495e-01
 -1.0788049e-01
 -2.0688745e-01
  1.2427172e-01
  6.5324262e-02
 -9.9774860e-02
  1.5025043e-02
  5.2985415e-02
  8.6180996e-03
 -4.4139303e-02
 -2.3835382e+00
 -2.2548859e+00
 -1.0406926e-01
  1.1655326e+00
  1.0882042e-01
  4.8138088e-01
  2.4684045e+00
  8.2395953e-01
 -5.3571403e-02
  1.7183487e-01
 -1.2950194e-01
  2.7074814e-01
 -3.5343960e-02
  1.0254414e-01
  2.8687248e-01
 -2.7917215e-01
 -1.2642183e-02
  5.9748536e-01
 -5.8732931e-02
 -7.3712252e-02
  1.5304288e-01
  8.3023362e-02
 -5.0349236e-01
  3.8381111e-02
  4.7431637e-02
  7.2707362e-03
 -1.2514847e-02
 -9.8774387e-03
  9.6349427e-03
 -9.0965986e-01
  1.8077906e-02
  1.2357374e+00
 -1.6425610e-02
  3.3559769e-01
 -2.1542058e+00
 -9.9570770e-03
  4.6492764e-03
 -4.3551461e-03
  1.3634513e-01
  4.5460623e-02
  8.4079407e-02
  1.1523231e-02
 -6.1343652e-01
 -8.8170180e-03
 -3.2807179e-02
  8.1675455e-02
  3.2317858e-02
  2.4958530e-01
  1.3854003e-01
 -2.3970382e-02
  6.0167413e-02
  1.2059658e-01
 -1.2268572e+00
  4.8073247e-01
 -1.8144829e+00
 -1.8973312e-01
 -1.2197154e+00
 -1.5991491e+00
 -1.9603510e+00
 -2.5006783e+00
  1.1578618e+00
 -1.6651431e+00
 -2.0986061e+00
  1.1247588e+00
  1.5534260e+00
  8.8109148e-01
  8.0302012e-01
 -2.4303789e+00
  1.8290708e+00
  1.6250721e-01
  2.4055965e+00
 -2.2197245e-02
 -2.1441734e+00
  1.6879938e+00
 -3.5205874e+00
 -6.5052509e-01
  2.1911337e+00
  1.1436055e+00
  1.0598890e+00
  1.7688351e+00
 -3.8646603e-01
  1.0067642e+00
  1.8515551e+00
 -7.4932468e-01
  1.0388684e+00
  1.8384945e+00
 -2.5312717e+00
 -4.9233699e+00
  1.9581397e+00
  2.6119533e-01
  1.7421871e+00
 -2.5628653e-01
 -1.0871939e-01
 -1.8267791e+00
 -9.7373259e-01
  2.1664641e+00
  7.7138805e-01
 -1.2335773e+00
  1.1840714e+00
 -1.5241159e+00
 -1.4172528e+00
  5.0292093e-01
  1.9209508e+00
 -1.1739490e+00
  2.6018381e+00
 -2.0836634e-03
  3.8896039e-01
  1.2065225e+00
  1.1231487e+00
 -1.2572029e+00
  2.3939190e+00
 -2.4397855e+00
 -7.3142201e-02
  4.0292207e-02
  1.5356336e+00
  5.5332959e-01
  1.8359157e+00
 -2.1962347e+00
 -1.3589759e+00
  2.2160923e+00
 -5.9496093e-01
  3.5471799e+00
 -2.7347419e+00
  3.0029482e-01
  8.0730313e-01
 -1.3027897e-01
  4.6231166e-01
 -3.2453674e-01
 -2.6502337e+00
  8.9683455e-01
 -1.0520173e+00
 -7.3269892e-01
  2.0170698e+00
  2.0101005e-01
 -2.3271473e-01
  3.3947295e-01
 -8.8522619e-01
 -9.3526119e-01
 -2.8007894e+00
 -3.7481105e+00
  3.0131395e+00
  2.0572974e-01
 -3.9782088e+00
  6.9758970e-01
  1.3442742e+00
  2.2892654e+00
 -1.2430583e+00
 -2.2887738e-01
  1.8717352e+00
 -4.7822040e-01
 -3.0329607e+00
 -2.1237100e-02
 -3.0307884e+00
  7.7219760e-01
 -4.2918463e+00
 -1.0297368e+00
  2.6216650e+00
  5.2743715e-01
  1.3418660e+00
  3.8331304e+00
  1.4476577e+00
 -1.7177103e+00
  1.6207367e+00
  7.0206302e-01
  1.7737625e+00
  2.5106268e+00
 -2.7124643e+00
 -1.9760730e+00
  1.5950720e+00
  1.0416158e-01
  3.3964436e+00
 -3.5035717e+00
  9.4605899e-01
 -1.7116576e+00
 -8.3718377e-01
  1.5009404e+00
 -2.8679228e-01
 -1.2588300e+00
  1.3163024e+00
  1.0176374e+00
  1.1186669e+00
  2.0124356e-01
  1.6654620e+00
 -1.9170554e+00
 -1.2116677e+00
  1.3361225e-02
  2.5062579e-01
  3.4886355e+00
 -3.4657434e-01
  1.2816720e+00
  1.6216183e+00
 -2.5349939e+00
  1.3731844e+00
 -1.3588005e-01
 -2.2200160e+00
 -5.9139711e-01
 -1.9360975e+00
  2.5287919e+00
  3.4893448e+00
  1.3201264e+00
  1.5033776e+00
  4.9717135e+00
 -2.2420607e+00
 -9.5818418e-01
  9.6366033e-02
  2.9901832e-02
 -1.3082975e+00
  1.5310961e+00
 -3.7461722e+00
  2.2731301e-01
  1.8805873e+00
  5.2113938e-01
 -1.2419158e+00
 -4.2745895e+00
  2.5609744e+00
  1.2655967e+00
 -4.6453242e+00
  6.5674655e-02
  4.5768251e+00
  9.7168714e-01
  1.6895638e+00
 -8.7576103e-01
 -3.3093613e-02
 -5.1447242e-02
 -1.5106998e-01
 -1.2094952e-01
 -8.0211975e-02
 -7.1087070e-02
 -3.6979191e-02
 -2.4090302e-01
 -4.4428781e-01
  1.2393535e+00
 -1.6800025e-03
 -1.0879190e+00
  8.7520815e-02
 -1.0304572e-01
 -1.5427761e-01
  2.5656167e-04
  4.3722253e+00
  1.3576418e+00
 -3.6291637e+00
  1.5129714e-01
  1.5156879e-01
 -1.7124645e+00
  1.9363518e+00
  3.7852290e+00
  1.6420312e-01
  3.9500046e+00
  5.6743979e-01
  4.9892834e-01
 -1.4431263e-02
 -1.3429905e+00
  4.4541037e-01
 -2.2568056e-01
  1.1267076e+00
 -9.2174286e-01
  1.9380305e+00
 -1.0375775e-01
  1.8310213e-01
 -2.8465701e-02
  2.2223124e-01
 -8.0773013e-04
 -3.1246170e-02
 -6.8125062e-02
  2.5873665e-02
  1.3124014e-03
  8.6729878e-01
  1.1140342e+00
  6.1504135e+00
  1.9502716e+00
  3.0308394e+00
 -1.4995891e+00
  2.5284305e+00
  7.1325421e-01
  1.5869082e+00
  1.7340367e-01
  6.0020469e-02
 -7.6245666e-01
  3.8364741e-01
 -1.6178182e-01
  2.9755154e-01
  1.3384253e+00
 -2.7538556e-01
  9.6503508e-01
 -6.1990857e-01
  1.5022984e+00
  5.5179518e-01
  4.2175141e-01
 -3.5082710e-01
 -1.0705183e+00
  9.6598411e-01
  1.1426088e-01
  2.5076818e-01
 -2.9453769e+00
 -1.2833056e-01
  5.4914683e-01
  1.9695907e+00
 -1.6631677e+00
 -3.5047102e-01
 -1.4707699e+00
  2.1949518e+00
  2.3746440e+00
  1.0702523e+00
  3.7460759e-01
  5.3623897e-01
  3.7439305e-01
  2.8228514e+00
 -1.2590086e-01
 -5.4966086e-01
  1.0105057e+00
 -1.7213819e+00
 -3.1241761e-03
 -2.7911076e-02
  1.1340965e-01
  1.2459435e-01
 -6.5111384e-02
  2.4552454e-01
  1.0091155e-01
  3.5771500e-02
  1.2548389e-01
 -5.7756525e-01
 -1.1293245e-01
  1.8180905e-02
 -8.0128415e-03
 -1.2143928e-01
  3.3673897e-04
  2.0153247e-01
  1.0740808e-01
 -1.7064956e+00
  3.0971428e-02
 -1.3406365e-03
 -3.3249336e-01
  4.1775540e-02
 -9.2100259e-03
  9.1928355e-02
  5.4548532e-02
  5.5510316e-02
 -2.1643092e-01
 -8.2550924e-03
 -7.0960097e-02
  1.8942412e-02
 -4.7686536e-02
  8.0732867e-02
 -2.0306972e-01
  1.7089128e-02
  3.4231253e-02
 -8.6237088e-02
 -1.2558100e-01
  1.4730296e-02
 -1.2229042e-01
 -6.8102717e-02
 -3.6612086e-02
  2.5546515e-01
 -6.2969249e-01
  7.6869115e-02
 -4.2286491e-01
  1.5800083e-01
  1.0449586e-02
 -4.4389423e-02
 -3.4651423e-01
 -3.8798833e-01
 -7.5678393e-02
 -6.0323831e-03
 -1.9830402e-02
  4.6480920e-02
 -3.2504044e-02
  2.3037616e-02
  3.9982017e-02
  3.1529929e-02
 -2.9098031e-01
  3.7455045e-02
  7.9214707e-02
 -1.9275308e-02
  3.6873791e-02
  3.8398042e-01
  1.6701773e+00
  8.1316465e-01
  1.3858119e+00
  2.8331008e+00
  2.0543277e+00
  3.7228396e+00
  3.5228851e+00
  2.7313833e+00
  1.9407372e-01
 -8.1997151e-03
 -2.0104246e+00
  1.8927482e+00
  1.9521378e-01
  9.3314378e-03
  1.8791179e-01
 -1.1717553e+00
 -9.8269010e-01
 -9.9069320e-02
  1.7205554e+00
  1.8142851e-01
  5.0981231e+00
  2.0939033e-01
  3.4168765e-02
 -8.4726548e-01
  2.0282382e-01
 -5.5237442e-01
 -2.0450988e-01
  3.0395031e-01
 -2.1773914e-01
  4.9265370e+00
 -1.7035650e+00
 -6.8028235e-01
 -8.8160634e-01
  9.1953444e-01
  2.6953967e+00
 -1.4923456e+00
  1.7445536e+00
  3.7382975e-01
  5.3030741e-01
 -3.1765475e+00
  7.7103592e-02
  9.8405242e-01
  1.5481661e-01
  4.2978106e+00
  1.8728238e-01
 -9.0949938e-02
  3.9694795e-01
  4.4832457e-02
 -1.3312192e+00
  2.3518054e-01
 -1.1450826e-01
  3.0297294e-01
 -3.4292746e-01
 -9.4016695e-01
 -2.6109695e-01
 -3.3423908e+00
 -8.4322792e-01
  3.3169416e-01
 -3.6215368e-01
  2.3794116e-01
 -1.3727871e+00
  2.9672000e-01
 -1.5069459e-01
  1.3824863e+00
  2.6590279e-01
 -3.2305199e-01
 -2.1669582e-01
  1.6770306e-01
 -3.5216159e-01
  3.8183924e-02
 -1.0617536e-02
 -7.9295568e-02
 -9.0622276e-02
 -1.2208301e+00
 -2.6650506e-01
 -5.1851451e-01
  1.9567132e+00
  6.0743261e-02
 -2.6793668e-01
  1.2623771e+00
  1.2172828e-01
  2.8835712e-02
 -2.6432738e+00
 -3.0619964e-01
 -2.7823624e-01
  8.9301184e-02
  1.4926717e+00
  2.1180034e+00
 -1.3986014e+00
  2.4333215e+00
  3.6857972e-01
 -1.2562589e-01
 -2.7713552e-02
 -2.3003640e+00
  2.8878322e-01
 -8.9420594e-02
 -9.7804502e-02
  2.2056394e+00
 -6.7703174e-03
  2.5813891e-02
  3.1441126e-02
  1.0768728e-01
 -3.1519530e-03
 -8.9721180e-02
 -1.2149785e-01
 -5.3061996e-02
  3.4626029e-02
 -1.3355834e+00
 -5.2895641e-01
 -3.2224569e-01
  5.5024959e-02
  5.6616330e-01
  1.8156262e-01
  9.7837783e-02
  5.3319596e-02
  1.8950338e+00
 -1.3144946e-01
  1.7942263e+00
  1.3898836e+00
  8.1750840e-01
 -8.8519780e-03
 -9.3960956e-02
  2.3819496e-01
 -2.5966495e-01
 -3.5641659e-02
 -6.2270284e-02
  2.0719968e-02
  8.0121052e-01
  5.7394600e-01
  9.1727036e-01
 -3.1669121e-02
  6.8364096e-01
 -1.8439393e-01
  2.3115380e-02
  4.7215185e-01
  5.2812225e-01
  2.2056063e-01
  1.0420324e+00
 -5.1991016e-01
  3.6250719e-01
  8.6523688e-01
 -3.2007579e-02
 -1.6970323e-01
 -8.3893120e-02
 -4.5617920e-01
 -6.8164766e-02
  8.7650329e-01
  2.5422922e-01
  4.8419261e-01
 -2.6562359e-02
 -4.8351112e-01
 -8.6619341e-01
  2.4087097e-02
  5.1744389e-03
 -7.8641631e-02
  3.6332257e-02
 -3.8440853e-02
 -4.7443882e-02
 -5.0105762e+00
 -1.1637505e-02
 -8.7754726e-02
 -2.6518279e-01
  1.8491645e-01
 -2.5536866e+00
 -7.0880681e-02
 -1.7915826e-01
  4.6604934e-01
 -1.0425594e-01
  1.0289874e-01
  3.2434681e-01
 -1.0560903e-02
 -4.3180790e-02
 -2.7801216e-01
  7.0370860e-02
 -4.0045328e-02
  3.0375639e-02
 -1.7007142e-01
  1.0124658e-02
 -2.6918612e-02
  5.6799967e-02
  1.0151020e-01
 -1.4374913e-01
 -4.2274684e-02
 -5.1683951e-03
  3.3250246e-02
  5.7201490e-02
 -1.8381025e-01
 -1.2368657e-01
  1.8549925e-02
 -2.2329288e-02
  6.2591076e-02
  2.7397516e-01
  1.8721476e-01
 -2.0912245e-01
  2.2719455e-01
 -4.0503521e-02
 -1.1521980e-01
 -1.5090421e-01
 -8.7279212e-03
  5.3178161e-02
  1.9313674e-01
  1.7636757e-01
  3.3298409e-01
 -1.5645373e-03
  1.5608381e-01
 -3.9184336e-02
  2.0514114e-01
  3.1495947e-02
 -8.6431108e-02
  2.6385751e-01
 -1.5197341e-02
  4.9974781e-02
 -1.1183245e-01
 -9.0901271e-02
 -1.3304535e-01
 -5.4260653e-02
 -1.1446285e-01
  3.9298832e-01
  1.1139440e-01
  5.0035138e-02
 -8.8153757e-02
  1.5471579e-01
  2.5658639e-02
  1.1534717e-01
  2.1571264e-01
 -2.0310399e-03
  9.3196593e-03
  2.5400259e-02
  2.2417609e-01
  2.1302592e-02
  1.4778428e-01
  9.3255393e-02
 -1.0482173e-01
 -1.0201338e-01
 -1.8892387e-02
 -1.2635417e-01
  6.0967798e-04
 -2.2692859e-01
 -4.9848333e-03
 -4.6016328e-02
 -8.1808446e-03
  6.5081067e-02
  1.7056026e-03
  1.6820005e-01
 -4.9762823e-02
  7.2175831e-02
  6.4531550e-02
 -1.7011804e-03
 -2.9202251e-02
  8.9757256e-03
  3.3196807e-02
 -6.0387049e-02
  8.2028667e-03
  1.0103591e-01
  3.2282200e-02
 -3.9633088e-02
 -4.5514680e-02
  2.7527088e-02
 -1.2265503e-01
 -7.1818501e-02
 -1.0623503e-02
  5.0804511e-02
 -9.3676984e-02
 -1.3418288e-02
 -1.8270984e-01
  9.9295259e-02
 -1.7391640e-01
 -3.6083009e-02
  8.2750984e-02
  2.8319759e+00
  3.4439877e-01
 -2.2011778e+00
 -7.6890045e-01
  1.9166057e+00
 -2.0526495e+00
  2.0505268e-02
  1.0236895e+00
 -3.1208396e+00
  7.6403564e-01
  2.3643699e+00
  1.7643912e-01
 -1.6043009e+00
  9.4009787e-03
  1.1018734e-02
 -5.8135804e-02
 -2.6974478e-01
  7.8196317e-01
  1.6620225e-01
 -2.4107373e-01
  8.6243427e-01
 -1.7050176e+00
 -6.4836603e-01
  2.0732391e-01
  2.0341533e-01
  1.1553060e-01
  4.6606717e-01
 -2.5182441e-01
  6.4001754e-02
 -4.7937095e-01
 -1.8653249e+00
  1.0870769e+00
  7.3952623e-02
 -5.9817612e-01
  1.9932380e-01
 -2.3783077e-01
  2.9761258e-01
  6.9559038e-01
  7.3303652e-01
 -1.8458190e+00
 -9.3849853e-02
  1.8582651e-01
  1.4678400e-02
  8.3618218e-01
  1.6812059e-01
 -4.3488815e-02
 -5.8665222e-01
 -6.0641054e-02
 -7.9156592e-02
 -3.9568201e-01
 -1.6237371e-02
  2.5768606e-03
  1.1545917e-01
  1.3747041e-01
  4.9862647e-01
 -5.3953253e-02
 -7.6265082e-02
  1.2373955e-02
  2.4347875e+00
  2.0760277e-03
 -4.9500419e-03
  1.8289400e-02
 -1.5966371e+00
  4.3607228e-02
  6.0853485e-02
  2.2656351e-02
 -5.4782663e-02
  1.3789319e-01
 -2.9036656e-01
  1.1154481e-01
 -1.1895073e-02
  2.3542047e-02
 -5.1976565e-02
 -1.2085029e-01
 -8.1956983e-02
  1.5532247e-02
  2.5462544e-02
  1.1164884e-01
  4.9571127e-02
  3.6953572e-02
  2.3398381e-01
 -2.8396121e-01
  2.2273043e-03
  1.9223830e-01
  3.2105852e-02
  1.8841521e-01
 -4.0918760e-02
 -3.4809832e-02
 -8.0482736e-02
 -8.2028612e-02
 -4.8048947e-02
  6.8316713e-02
  1.2557139e-01
  4.3323374e-01
 -8.4846321e-04
 -6.8358392e-01
  2.3139781e-01
  9.6207067e-02
  1.8444180e-01
  1.5166819e-02
  1.4155625e+00
  8.5059084e-02
 -8.4808469e-02
 -1.1664448e-01
  7.0051858e-03
 -6.0778324e-02
 -6.6766344e-02
 -5.1454999e-02
  1.5805383e+00
 -1.6231738e-02
  1.2030324e-01
  1.0622436e-01
  9.9464923e-01
 -3.3075409e+00
 -1.2041600e-01
  4.9758763e+00
 -1.8351525e+00
  1.2803161e-02
 -3.1503238e-02
 -1.3911901e-01
  1.7476629e-02
  1.9561510e-01
  3.0285943e-02
  4.3716268e-03
  5.3456675e-02
 -9.8666623e-02
  7.1016289e-02
  4.3203626e-02
 -6.9730163e-02
  9.3840342e-03
  4.1453341e-01
  6.0367984e-01
  1.2847668e-01
  7.8716427e-01
  3.8650683e-01
  1.9177374e-01
  1.2051313e-01
 -2.7247801e-01
  1.3700071e-01
  3.7801582e-02
  1.3727897e+00
 -1.4760777e+00
  3.7778759e-01
  1.7515780e+00
 -2.2916803e-02
  1.6761590e+00
 -2.1770956e-02
  6.4289083e+00
  6.8363440e-01
  8.8060638e-03
  4.6825167e-02
  1.0122605e-02
  8.9837566e-02
 -5.8188334e-02
  1.1233471e-02
 -2.4687602e-01
  3.2541983e-02
 -1.7638034e-01
  2.1217476e-01
  8.5781636e-03
  4.5220260e-02
  3.4124032e-03
  5.9687799e-01
  5.4136101e-02
 -2.2659515e-01
  7.6551847e-02
 -2.5321063e-01
  1.3927093e-01
  1.3794366e-01
  7.8199440e-01
 -1.7499901e-01
  5.2660298e-02
  3.9502658e-02
 -2.6094960e-02
  4.1645136e-02
 -4.3949507e-02
 -1.5939437e-02
 -4.5946691e-02
 -9.5781446e-02
  8.0731481e-02
 -1.1904515e-02
 -2.5738832e-01
 -2.5090674e-01
  2.0142932e-01
 -2.3717242e-01
  1.0286355e-01
 -1.6388164e-01
  1.8569684e-01
  5.0942849e-02
  3.1862286e-01
 -3.9185360e-02
 -4.1430197e-03
 -2.7427094e-03
  2.8257027e-02
  6.9561884e-02
 -2.0480901e-02
  3.9171249e-02
 -4.9253330e-03
  5.7949526e-03
 -1.5156041e-01
  3.4408495e-01
 -1.0742952e-02
 -1.6386190e-02
  3.1126977e-04
 -3.3554027e-03
 -1.0305990e-01
  6.1365690e-02
 -3.0648999e-02
 -5.4528356e-02
  7.0959121e-02
  1.2590638e-01
  1.1128204e-01
 -1.4714763e-02
  1.8714064e-01
  2.4503822e-02
  6.0547404e-02
 -5.7936665e-03
 -2.8133154e+00
 -1.3323765e+00
 -8.6558139e-01
 -1.1306707e+00
  4.4670749e+00
  2.2822084e+00
 -7.1110444e+00
 -2.9936149e+00
 -1.5845406e-01
 -5.7243053e-02
  2.5514841e-01
 -1.1339309e-01
 -1.4134683e-02
 -6.3782823e-01
 -1.3372189e-02
 -1.0566500e-01
 -2.9685924e-02
 -4.9732013e+00
  6.4118046e-01
  6.3254252e-02
  1.9405746e-01
  9.2714960e-03
 -2.3199970e-01
 -4.2362609e+00
 -9.2925125e-01
  1.5249196e-01
 -2.3272744e-01
  1.5966474e+00
  4.9165580e-01
  3.8241395e-01
  1.4094163e+00
  1.6893718e-01
 -2.3115978e-02
 -3.7825465e-01
  1.7383778e+00
  4.4389734e-01
  9.5631909e-01
 -1.5323867e-01
  4.7702856e-02
 -1.0510945e-01
 -1.6783762e-01
  1.8630687e+00
 -2.6165321e-02
  1.4756824e-01
  1.5840000e-02
  3.7606362e-01
  7.5606368e-02
 -3.0287299e-01
  3.5704635e-02
 -7.7647148e-03
 -3.2930180e-01
 -1.3760276e-02
 -5.3200372e-03
  1.3078342e-01
  1.0354391e-01
  1.2126234e-01
  2.1708527e-01
  6.1904557e-02
  1.3672052e-01
  8.1075756e-03
  2.2390428e-01
  8.8681214e-02
  1.4775313e-01
 -1.1128341e-01
  7.3644623e-02
 -2.2612569e-01
  3.5288006e-02
 -1.0151239e-01
 -1.1945198e-01
 -8.7749334e-03
 -9.4773404e-02
 -5.2700050e-02
  9.8297400e-03
 -4.4524141e-02
 -1.0052293e-02
 -3.0992010e-01
  1.1069805e-02
 -2.9706219e-02
 -1.4309868e-02
  1.5301068e-02
 -1.4348742e-01
 -1.5961872e-01
 -8.2597218e-02
 -1.2390409e-01
 -7.4794494e-02
 -8.3378963e-02
  3.4342583e-03
 -5.8954465e-04
  7.7458769e-02
 -1.7916800e-01
 -3.2708153e-02
 -3.1295732e-01
 -7.1394272e-02
 -1.3656975e-01
 -3.9978854e-02
  1.2118794e-01
 -2.2623019e-01
 -1.0213833e-01
 -9.1370091e-02
 -7.0525631e-02
 -5.8329226e-03
 -6.3754115e+00
 -7.6822643e-03
 -2.4013244e-01
  1.2452966e-02
 -4.3056770e-03
  2.9713351e-02
  1.6150329e+00
 -1.6442569e-01
  4.4868112e-01
  6.0854819e-02
  1.7373952e-01
  3.0838926e+00
 -7.0972377e-03
  3.0011719e-01
 -1.1269420e-01
  6.5007761e-02
 -1.8496099e-01
  6.2960476e-02
 -3.7370093e-02
 -1.9180429e-01
  4.6666518e-02
  1.2385028e-01
 -4.0943552e-02
  3.6591996e-02
  2.0528466e-02
  3.7605980e-01
 -1.1178102e-01
  1.8857662e-01
 -7.1918353e-02
 -9.4260894e-02
 -5.2439310e-02
 -1.1123990e-01
 -3.6666936e-03
 -1.1124993e-01
  3.9180797e-02
 -4.3172430e-02
  1.0363963e-01
 -8.2644545e-02
 -5.5859126e-02
  2.4072067e-01
  9.2298344e-02
  1.9397624e-01
  4.1704018e-02
  3.1471033e-02
 -6.9302456e-03
 -8.7011002e-02
 -1.4079499e-01
  1.0066720e-02
  7.4860074e-02
  1.5931724e-02
 -2.9701407e-03
  2.6691180e-02
 -5.1137514e-02
  1.2379598e-02
  2.9480558e-02
  9.2274465e-02
 -2.8895510e-02
  4.5298107e-02
 -4.6755329e-02
 -1.5405715e-01
  4.8710009e-01
 -5.2521452e-02
 -2.6009142e-01
  8.6570323e-02
 -3.2894489e-01
 -1.4002473e+00
 -3.1672727e-02
 -2.7863889e+00
 -9.4248581e-01
 -9.0843379e-02
 -8.0626361e-02
  5.6093398e-02
 -1.3209568e-02
 -7.7805117e-02
  9.5635224e-03
  1.1156177e-01
  7.0387587e-02
 -1.7624596e-01
 -3.5134554e-02
 -3.8547955e-02
  1.9932143e-01
  2.1354640e-02
 -1.4525819e-01
  1.4352989e-01
  8.8792056e-02
 -3.0715516e-01
 -4.7118221e-03
  4.2917645e-03
 -4.9652949e-02
 -1.1221846e-02
 -7.2834410e-02
  2.1268694e-02
  5.0048634e-02
 -3.0015782e-01
 -3.3610433e-02
 -4.8286268e-01
 -1.4264009e-02
  4.4999178e-02
 -2.6403975e-01
  1.4037627e-02
  1.5989828e-01
  6.5534115e-02
  1.0127392e-01
 -2.3696843e-01
 -1.6370212e-01
 -1.2782038e-02
 -1.4511527e-01
 -1.7611481e-02
  2.4079690e-02
  2.2222100e-02
  8.6956052e-03
  3.0103469e-02
  5.4025367e-02
 -7.3254973e-02
 -5.8447398e-02
 -8.8101126e-02
 -7.9129459e-03
 -5.8936629e-02
 -3.1003147e-01
 -1.8798722e-01
 -5.4014199e-03
 -6.9239778e-03
  3.4376669e-01
 -1.4426009e-03
  2.3938273e-01
  1.3537094e-01
 -6.7234516e-02
  7.6500811e-02
 -2.8444033e-02
 -1.9825941e-01
  4.8589926e-02
  8.4308892e-02
  2.8689331e-01
 -9.0224445e-02
  7.1894251e-02
 -1.1196591e-02
 -7.4062921e-02
 -3.9478369e-02
  4.9505809e-01
 -9.2090936e-03
  4.1924741e-02
  2.9905525e-03
  7.5812568e-03
  5.1241923e-02
 -3.5110093e-04
  1.4098594e-01
 -3.1741723e-01
  4.7649157e-01
 -1.1861280e-01
  2.6486248e-02
  1.0472274e-01
  4.6419822e-02
  1.2668839e-01
 -5.0153989e-02
  1.2992749e-02
  5.6112031e-03
  4.9053282e-03
  1.8942291e-01
  2.7795481e-02
 -4.4686761e-02
 -4.1901641e-02
  9.7328648e-02
 -1.4087935e-02
 -1.3062903e-01
  5.0099552e-02
 -9.6420169e-02
 -6.3984960e-02
 -2.2064326e-02
  3.1594884e-01
  3.2653745e-02
 -1.7101356e+00
  1.0588961e+00
  4.1238382e-02
  1.1184003e+00
  8.0792868e-01
 -6.2017631e-02
  7.2119124e-02
  4.8374566e-01
  1.6698719e+00
 -2.2702658e-01
  3.1918290e-01
 -3.6921191e-01
  4.3646317e-02
  1.0571203e-01
 -4.7290677e-01
 -1.7579142e+00
  1.0690397e+00
  3.3953553e-01
 -5.2547634e-01
  7.4559522e-01
  1.2166169e-02
 -9.6138597e-02
  1.2682780e+00
  1.6912211e-01
 -5.8955450e+00
  1.5895935e+00
 -4.8127132e-03
  3.5395906e+00
  7.9618984e-01
 -2.1321931e-01
  5.2611262e-01
  1.0006316e+00
  1.6159877e-02
  5.9013590e-02
  6.3963836e-01
  7.9606930e-03
  1.3561107e+00
  2.6264581e-01
  2.1597438e-01
  1.4242591e-01
  2.4523126e-01
  3.2602495e-01
 -4.8443788e-01
  2.6814485e-02
 -1.8451160e-01
  1.5723552e-01
 -5.9715088e-02
 -4.2178553e-01
 -1.2057614e-01
  1.2114019e-01
 -7.0265919e-02
  6.4915672e-02
  6.4774089e-02
 -5.8276611e-03
 -1.3077246e-01
  1.2527464e-01
  5.1605277e-02
 -9.9011064e-02
 -8.3990386e-03
 -6.3007921e-02
 -6.0262680e-02
  5.8172356e-02
 -9.3916588e-02
 -5.3044256e-02
 -6.0940947e-02
  6.5387741e-02
 -1.7620586e-01
  5.0575174e-02
  1.0786981e-01
 -2.0581687e-02
  3.0205028e-02
 -5.7843103e+00
 -2.5778962e-02
  6.5189928e-02
 -1.4696349e-02
 -9.9910898e-03
 -1.1356016e-01
  3.1309012e-02
  2.2672081e-02
  4.7127731e-02
 -5.6544319e-02
  1.6970612e-01
  3.9966136e-02
 -5.6956303e-03
 -4.2946488e-02
  5.5289086e-02
 -1.6042173e-01
  1.3909961e-02
  6.5683678e-02
  2.2799047e-02
  4.6940308e-02
  4.2534772e-02
 -4.0027719e-02
 -1.3073997e-01
  1.5480661e-02
 -3.9524633e-02
 -2.1805981e-02
 -8.1313543e-02
 -2.1191224e-01
 -7.4690044e-02
 -2.0721272e-01
 -8.5094072e-02
  9.8402031e-02
 -3.9639171e-02
  2.1134123e-01
 -3.8469315e-02
  2.9391174e+00
  5.2051282e+00
 -6.8760324e-01
  8.0592418e-01
 -5.0840092e+00
  1.4684631e+00
  1.0101742e-01
  6.0675633e-01
  3.7475309e+00
  4.9429926e-01
  1.4170287e+00
  1.8947048e+00
  4.9558419e-01
  1.1630194e+00
 -4.4948012e-02
  2.2340062e+00
 -1.4662076e-02
  1.1769241e+00
 -8.4376615e-01
  2.0814963e-01
  3.2510154e-02
  5.8647716e-01
 -1.6161789e+00
 -5.2190144e-03
 -2.8757026e-02
  2.8506342e-02
  1.0703697e+00
  2.8573588e-01
 -1.0095107e-02
 -3.0014527e-01
  1.6476987e-01
  1.5619993e+00
 -5.2439772e-02
 -1.7944558e+00
 -8.9410281e-01
 -3.5208497e-02
 -2.2817252e+00
  1.0417711e+00
 -8.2858376e-02
  5.9290770e-02
 -3.4687979e+00
  2.8108960e-01
  4.5793799e-01
  2.1411399e-05
  9.5157042e-02
 -1.4535095e-01
  9.4928909e-03
 -3.4914282e-03
 -1.0577869e-01
 -7.1179993e-02
  1.7912526e-02
  8.5965998e-02
  4.4947807e-02
  2.1729905e-03
 -1.1501034e+00
  7.2559839e-01
  1.1781219e+00
 -3.0895684e-02
 -8.2258421e-01
  1.7701684e-01
 -7.6330580e-02
 -1.8483552e+00
 -8.0182731e-01
 -8.8984609e-02
  8.1615165e-02
 -1.3675182e-01
 -2.0777516e-01
 -9.3886264e-02
 -3.0560553e-01
 -8.3471984e-02
  2.0737175e-02
 -1.2490682e-02
  5.0372444e-02
  3.8466117e-01
 -1.8340071e-01
  4.9998812e-02
  2.9115415e-01
  1.2424903e-01
 -1.8409206e-02
 -1.2782849e-03
 -8.1439808e-02
 -1.6461399e-01
 -3.1636572e-01
  2.4611630e-01
 -1.7088407e-01
  2.1424538e-01
  1.8676838e-02
 -2.4341432e-02
  7.2326162e-03
  1.0059141e-01
  3.5907451e-02
  1.6009115e-02
 -1.6109143e-01
 -7.9814047e-02
  1.0772654e-01
  2.0460860e-01
  3.0791599e-01
  5.5634785e-02
  3.6283012e-02
 -5.2148260e-02
 -2.6071921e-04
 -4.5069955e-02
 -3.3613086e-02
 -1.6579056e-02
  1.3455578e-02
  1.3860545e-01
 -8.1929706e-02
  4.7958445e-02
  2.7113450e+00
 -1.9934953e+00
  4.4956812e-01
 -1.4832662e+00
 -4.1733341e+00
  9.1968948e-01
 -4.4942021e+00
  8.1390131e-01
 -1.1356375e+00
  1.0458528e+00
  1.3551968e+00
 -6.1475459e-02
  3.0763106e+00
  2.3815958e+00
 -8.6445147e-01
  3.3095229e-02
 -2.8622833e-01
  1.8593488e+00
 -9.6727711e-01
  1.5149043e+00
 -9.4067112e-02
  4.7238884e+00
 -1.0020436e+00
  5.3962369e-02
 -2.6656076e-01
  4.5153674e-01
  2.3188379e+00
 -1.1967577e-02
 -3.2895860e-01
 -1.7944491e-02
  2.7301140e+00
  1.4251736e-01
 -1.0747647e+00
 -8.6223805e-01
  1.1520185e+00
 -7.6604515e-02
 -1.3644538e+00
 -2.2455089e-01
 -1.6247164e+00
  1.8117300e+00
  2.2590439e+00
 -2.5645449e+00
 -4.0688321e-01
  2.3734462e+00
 -9.9491608e-01
  9.6363090e-02
 -4.6585310e-02
 -8.8540636e-02
  9.1263509e-01
 -6.7956847e-01
 -4.9560919e-02
 -5.6565940e-02
 -3.1373855e-02
 -6.2430400e-01
 -2.2268385e-01
  1.3676763e-01
  1.9717451e+00
  6.0936455e-02
  1.9142056e-02
  2.2485320e-02
  2.4561207e-01
 -1.8833627e-01
  8.0125064e-02
  2.3363383e-01
  1.2828083e-01
  3.8886684e-01
  4.9567652e-01
 -1.6624378e-01
  1.7685458e-01
  2.1026301e-01
  1.8003091e-01
  1.4960583e+00
  1.3631210e-01
  5.3551294e-02
 -1.1935853e-01
  6.5455711e-01
 -1.4641604e+00
 -7.9724127e-01
 -1.3450509e-01
  7.7041565e-04
  1.6934101e-01
  7.2828837e-02
 -1.0285051e+00
 -2.4859858e+00
 -4.8967257e-01
  8.1429631e-01
  3.2827179e-03
  1.3563673e+00
 -9.2347479e-01
  1.9773191e-01
  5.1534116e-01
 -1.4497595e-01
  1.0544062e+00
  1.9958310e-01
  2.2046934e-01
  6.4525050e-01
  4.0888244e-01
  2.2768529e-01
  1.1074020e-01
 -1.9977242e-01
 -8.9888811e-02
 -6.6804938e-02
  2.9256892e-01
  4.2861428e-02
  2.7005808e-02
 -6.5792546e-02
 -3.5168000e-02
 -1.6458532e-02
 -8.9868736e-01
 -2.1891542e-01
 -2.5769037e-01
 -6.6811955e-01
  1.3152437e+00
  1.2536150e+00
  5.9998568e-02
  4.5232153e+00
 -1.1344888e+00
  3.9850107e-01
 -1.5556756e-01
  4.1407935e-02
 -4.0831819e-01
  1.4201158e-01
  1.1263130e-01
  7.7024572e-02
  1.1378919e-01
 -2.0184247e-02
  1.3782284e-01
  2.4777442e-02
  5.7111103e-02
 -3.1430629e-01
  3.5562149e-01
 -1.4447841e-01
  4.4886179e-02
  5.2792516e-02
  8.0765307e-02
 -1.8605816e-03
  9.4756916e-02
 -1.2545521e+00
 -9.8963127e-02
  6.8505317e-02
  2.0801919e-02
  3.9702508e-01
  3.2909289e-01
  9.2019039e-01
 -6.1753608e-02
  1.9505595e-01
  1.2474331e+00
 -1.7058618e-01
  1.2053302e-02
 -4.6274871e-02
  3.7097901e-01
 -9.0365661e-03
  2.7977714e-01
  6.3852854e-02
  1.9988403e-02
  5.2750900e-02
 -7.2633199e-02
 -8.7857120e-02
 -7.7372037e-02
  3.1275176e-02
 -6.4541496e-02
  3.6598086e-02
  5.1715097e+00
 -9.9400669e-01
 -2.3691392e+00
 -6.4741105e-01
  6.9529653e-02
  1.5863005e+00
 -3.8415145e-03
  4.3530083e+00
  6.8908720e+00
  1.7590433e+00
 -1.1305200e-01
 -6.4723980e-01
 -4.3220475e-01
 -3.8657928e-01
 -3.6125913e-01
 -3.5434094e-01
 -2.9715371e-01
 -5.3786719e-01
  1.2025565e-01
 -9.1698626e-03
 -3.4270179e-01
 -6.9419217e-01
  1.7927678e+00
 -2.4642247e-01
 -1.9859914e-03
 -4.3249056e-02
  3.0937508e-02
 -6.0783070e-01
 -1.0938861e+00
 -3.0079150e-01
 -3.6732733e-01
 -1.9242504e-01
 -1.6142039e+00
 -6.3449979e-01
 -1.6089944e+00
  6.0273618e-01
  7.1261668e-01
 -4.6779234e-02
 -1.6318657e-01
  4.6804108e-02
  2.4214959e+00
 -2.6193616e-01
  6.8101764e-01
 -1.3223363e-01
 -9.7131652e-01
 -1.6297512e-01
  3.4225885e-02
  3.1497071e+00
 -1.2786400e-01
  1.1825624e-01
  3.6026683e-02
  7.6332122e-02
 -2.8538307e-02
 -4.9307056e-02
  2.9575570e+00
 -1.1364501e+00
 -3.9179850e+00
 -1.3984285e-01
 -1.3973002e-01
  2.4429703e+00
 -3.6147528e+00
 -1.9594765e+00
 -2.8087649e+00
  1.7926921e-01
 -5.8797300e-02
  1.6604742e-02
 -6.2476974e-03
  1.8174009e-01
 -4.1681014e-02
  2.6441127e-01
  6.7523640e-01
  5.7233769e-01
  7.9035170e-02
 -6.7619979e-01
  3.7764552e-01
  5.3723896e-01
 -5.2483886e-01
 -8.0992872e-01
 -2.0179882e+00
  4.2977652e-01
 -6.0798401e-01
 -3.5553265e-01
  1.1020045e-01
 -9.1601515e-01
  6.3557208e-01
 -2.2679439e+00
 -8.0773026e-01
 -1.0793759e+00
  1.7255497e+00
  2.2136965e-01
 -2.7754986e+00
  1.6243157e-01
 -1.9702590e-01
 -1.9644108e-02
 -2.1927607e+00
  1.4226338e-01
  1.3087209e+00
  1.1562231e+00
  2.4111774e+00
 -1.6812143e-01
  2.7469397e-02
  1.2085946e-01
 -3.1138277e-01
 -3.4813441e-02
  1.2913249e-01
 -4.9238787e-03
 -1.5342325e-02
  5.4547891e-02
  8.8743949e-03
  1.6072579e-02
 -5.6546442e-02
 -6.7267261e-02
  2.6620692e-01
 -2.7631609e-02
 -1.3570982e-01
 -3.7172046e-02
  2.7765550e-02
  9.8987399e-03
 -5.4095063e-02
  8.5299477e-02
  7.7281579e-02
  3.3068944e-02
 -3.2130364e-02
  1.8846141e-02
  1.0614190e-01
  8.1804290e-02
 -8.0018930e-02
 -1.7919476e-01
  7.9369701e-02
 -2.3464185e-01
  2.8951468e-02
 -1.6471438e+00
 -5.6481991e-02
  4.6692025e-05
 -1.1325071e-01
  1.6552348e-02
  2.7771708e-01
 -1.1660899e-02
 -1.9095633e-02
  8.6605102e-03
 -3.7515122e-02
  1.2017570e-01
 -1.2184460e-01
 -7.5970888e-02
  3.0024919e-01
 -5.3588254e-03
  5.2048251e-02
  2.8255743e-03
  7.4004315e-02
  1.4158918e-01
  1.0051490e-01
  3.9803167e-03
  2.1315067e-01
 -2.1284956e-02
  2.5035634e-03
  3.2388680e-02
  2.4565244e-02
  1.6729535e-01
  2.0721545e-02
  9.4896249e-02
  4.9064495e-02
  2.4729106e-03
  1.7543533e+00
  1.2104965e+00
  3.4759188e+00
 -6.8504207e-02
  1.4846839e+00
 -3.9949768e+00
  2.8488886e+00
 -8.6885303e-01
  2.7124193e+00
  1.3087143e-02
  5.1217020e-01
  1.6673887e-01
  2.5182843e-01
  1.2364786e+00
  7.6661352e-03
  5.3692210e-02
  2.1914262e-01
  1.4317723e-01
 -3.4040946e-01
  8.8802129e-03
 -5.8834855e-02
 -4.4607376e-03
 -5.1870044e-02
  1.5486456e-02
 -1.4539620e-01
 -2.4100679e-01
  8.2674019e-02
  3.8145906e-01
 -2.9520130e-02
  4.9648583e-02
  8.3738051e-02
  1.5758806e+00
 -2.1101346e+00
  1.4504791e+00
  1.1592162e+00
  4.6344724e-02
 -7.4309609e-03
 -9.0538509e-02
 -4.6306394e-02
 -1.0139054e-01
  1.5209926e+00
 -6.6530041e-02
  1.0145637e+00
  2.7130404e-01
 -1.6811441e-01
  1.6370079e-01
  4.7682145e-01
 -7.1060188e-02
  4.0904749e-02
 -6.5323003e-02
 -4.0239315e-03
  7.3363565e-02
 -2.3487935e-02
 -5.5769626e-02
 -2.7188547e+00
 -1.9151190e-02
 -1.3440753e+00
 -9.5442511e-02
  1.7023072e+00
  5.7680994e-01
 -3.9456945e-02
  4.2570496e+00
  7.6389790e-01
  7.2736025e-02
 -1.4107848e-02
 -5.8095181e-01
  2.7797697e-02
  5.2824382e-02
 -1.1849313e-02
  2.5684950e-01
 -3.3851881e-02
  4.0117006e+00
  1.0930073e-01
 -1.3744080e-01
 -3.3538692e-02
  4.0080622e-02
  2.3923044e-01
 -1.8628687e-01
 -2.6976725e-02
  1.3833281e-02
  1.0072503e+00
 -2.2358153e-02
  4.4066444e-01
 -7.4721658e-01
 -2.1264529e-01
  1.0566628e+00
 -8.2630765e-01
  9.7765279e-01
  8.6385503e-02
  2.5166910e+00
  2.3359008e-01
  1.3917817e-02
  8.9917618e-01
  6.6860542e-03
  1.2239132e-01
  1.6443279e+00
  4.7164196e-01
  1.2964348e-01
  1.4136482e+00
  6.7519046e-02
 -1.4829378e-01
  9.8641617e-03
  1.1329283e-01
  6.4543337e-02
 -5.1588048e-03
  4.5996374e-01
  1.1497078e-01
  1.1836874e-01
  3.0296582e-01
 -3.4994919e-02
 -3.8166307e-03
  9.5686346e-02
  2.4958244e-02
 -1.1154715e-02
  6.1901383e-02
  2.5145099e-01
 -2.5198719e-01
 -3.7955362e-02
  8.1233740e-02
  8.5914368e-03
 -4.6856534e-01
 -1.7809289e-02
 -4.0745582e-02
  8.0616055e-03
  9.6829765e-02
 -1.6642071e-01
  1.6260764e-01
  3.9308418e-02
 -1.0940637e-01
 -2.8584441e-02
  1.2170913e-01
 -1.8875251e-02
 -2.9036423e-02
 -1.7776458e-01
 -1.5000126e-02
 -2.3852907e-02
 -1.1207619e-01
  5.2098066e-01
  1.2872896e-01
 -6.7834251e-02
  1.2687790e-01
 -3.5058886e-01
  5.8434267e-02
 -3.3529323e-02
 -8.7074026e-02
 -2.9309916e-03
  2.4367280e-01
  5.1104806e-02
 -2.7865639e-01
  3.6044463e-03
  1.9997135e-01
 -4.0059406e-02
 -8.9061186e-02
  3.7211783e-02
  1.4159470e-02
 -2.3058576e-03
 -1.3942483e-01
  2.4065709e-01
 -1.1870862e-01
 -6.3870855e-02
  1.5749314e-01
  8.1017591e-02
  2.7402434e-02
  1.1186749e-01
 -1.2737202e-02
 -6.0616840e-02
  6.2030233e-02
 -6.7750946e-02
  1.5260148e-01
  1.9512545e-01
 -2.1367827e-01
  2.5781635e-02
  5.7197403e-02
 -2.4758722e-01
  5.1654801e-02
 -7.8943890e-01
  2.7995052e-02
 -1.0302793e-03
  3.1307664e-02
 -8.2385167e-02
 -3.0348932e-03
 -4.9829930e-02
  3.9254144e-02
 -4.7673069e-02
  1.3905151e-01
 -5.6567200e-02
 -1.0598207e-01
 -3.5595562e-02
  3.7409507e-02
 -3.3484050e-03
 -2.8535908e-03
 -3.6358491e-02
  4.9466908e-02
  1.1678095e-01
 -9.0305433e-02
 -2.3743509e-01
  4.5513902e-02
 -9.2474528e-02
  1.4116929e-01
  4.4757538e-03
  2.2595644e-01
 -9.9104136e-02
  1.3137315e-02
  1.8684456e-02
 -3.8947582e-01
 -1.9918539e-01
  2.4887610e-02
  6.9156624e-02
  1.9494945e-01
  2.0656039e-01
 -4.4048049e-02
 -4.6482805e-02
 -1.2101638e-01
 -3.5624936e-02
  3.5512507e-02
  3.7969989e-01
 -1.7861654e+00
  4.9827099e-01
  2.3049249e-01
 -1.1632877e-02
 -3.1715834e-01
  1.6428090e+00
  9.7326708e-01
 -7.1448884e+00
  1.1036868e+00
 -4.9925148e-02
  9.0717897e-02
 -3.3182635e-03
  2.2633970e-02
  1.0327396e-01
 -7.0441946e-02
  4.7476456e-02
  2.6108555e-03
 -4.8892677e-02
 -1.4272884e-01
  1.5474699e-03
 -3.2395732e-02
 -1.7298836e-01
 -1.0259015e-01
  7.7574104e-02
 -3.0998934e-02
  1.1341935e-01
 -1.0947096e-01
 -2.5879341e-01
 -7.0560500e-02
 -7.8678840e-01
 -2.3181939e-02
 -1.4379795e+00
 -2.8084105e-01
 -4.8687574e-02
  3.7307486e-01
  9.8486066e-01
  5.1416326e-02
  8.1853837e-02
 -1.2129252e+00
  1.0099944e-01
  8.8474369e-01
 -6.2558480e-02
  1.3901720e+00
  1.2989224e-01
  3.8155600e-01
 -1.0675452e-02
  2.0194837e-01
  1.2584649e-01
  1.1530259e-01
  3.5949454e-01
 -1.1530489e-02
 -1.1045954e-01
  1.5982790e+00
 -1.7949858e-01
 -1.1983658e-01
  1.0929149e-01
  5.4675049e-01
 -2.6265964e-02
 -7.0146376e-01
  1.4719559e+00
  3.2441649e-01
  4.9011916e-01
 -4.0156209e-01
 -1.1897534e+00
 -2.6005098e-01
 -6.2125832e-02
  8.0784017e-01
  8.2843655e-01
 -4.1799188e-01
 -3.8405623e-02
 -6.3603736e-02
  8.9373255e-01
 -4.2492530e-01
 -1.0259764e+00
 -8.7867334e-02
  1.1021535e+00
  1.1221870e-01
 -4.1802037e-01
  4.1316137e-02
  1.0343015e+00
 -3.0672100e+00
  1.0812622e+00
  4.8413442e-04
  8.6262435e-02
  2.0883305e-01
  3.5005670e+00
  8.3076006e-01
 -2.6951983e+00
  1.4010406e-02
 -6.9140531e-02
 -1.7678094e-01
